layers 14
layer 0 Convolution2D
32 1 3 3
[ 0.12599267  0.29242456  0.2742151 ]
[ 0.14691    -0.1762224  -0.22923239]
[-0.46889931 -0.03730095 -0.14722337]
[-0.05749122 -0.28896227 -0.13875495]
[-0.27424422  0.035032    0.00986947]
[ 0.32739556  0.24488936  0.1238199 ]
[-0.27661493 -0.20168909 -0.12184412]
[ 0.40718925  0.27948415  0.28162318]
[-0.17652451  0.27260682 -0.1232712 ]
[-0.39046672 -0.13560587  0.26719445]
[ 0.2661266  -0.0765657   0.29144651]
[ 0.21953489 -0.0526976  -0.43695053]
[-0.04653896  0.35324198  0.10360539]
[-0.33803716  0.07893459 -0.12296243]
[-0.30864996  0.39546129 -0.20046248]
[ 0.01052428 -0.21282107 -0.10153821]
[-0.34364527  0.38604322 -0.05452506]
[ 0.4009465   0.3704606   0.18009567]
[ 0.19786355  0.36118478  0.03264315]
[ 0.28194377 -0.00964592  0.15598445]
[ 0.01644729 -0.01142103  0.07188387]
[-0.3770681   0.40177739 -0.0068391 ]
[ 0.24562386  0.15958408 -0.00821747]
[ 0.15150447  0.08599993 -0.10541376]
[ 0.36954641 -0.34503579  0.02174294]
[-0.15881653 -0.10304435 -0.23158279]
[ 0.38597363  0.01466326 -0.03314612]
[-0.25367957  0.19758363  0.27606702]
[-0.2289584   0.03546622  0.0865266 ]
[-0.17515914 -0.31279159  0.09254057]
[-0.33096209 -0.44273722 -0.24134751]
[-0.0737483   0.01158913  0.30223861]
[ 0.4042922   0.42776814 -0.08013395]
[ 0.29067865  0.12236091 -0.04089274]
[ 0.08138718 -0.16704203  0.01421645]
[ 0.0849509   0.28606871  0.00040927]
[ 0.06514759 -0.07365103  0.01511861]
[ 0.23082188 -0.11826645 -0.2818276 ]
[-0.12544256  0.34804296  0.17256585]
[-0.18735182 -0.06638929 -0.23841032]
[-0.35039219  0.32634622  0.34247115]
[ 0.37984324 -0.03681719  0.28885961]
[-0.07833293  0.24949738  0.28636625]
[-0.3349005   0.26505172  0.07979509]
[ 0.08152711  0.23888831  0.22300093]
[-0.33673009 -0.24521405  0.14874814]
[ 0.2888948  -0.26510116  0.28488851]
[-0.07204392  0.18931316  0.14440095]
[-0.1651331   0.24053034 -0.28080198]
[-0.41540974 -0.26392332 -0.06849029]
[ 0.47061515 -0.00157366 -0.04742124]
[ 0.26842591  0.00520756 -0.28748634]
[-0.14983314  0.40283081 -0.24313557]
[ 0.34103748 -0.16174193  0.24403372]
[ 0.30323482  0.27753851 -0.10671099]
[-0.23684493 -0.4604224  -0.33094606]
[-0.23837934  0.09858565  0.28011474]
[ 0.26997167  0.36977774 -0.03855272]
[ 0.07386802 -0.119657    0.19053419]
[ 0.33784541 -0.24263266 -0.35172871]
[ 0.27264553 -0.09037559  0.23754974]
[-0.0838002   0.37608302 -0.11709006]
[-0.22860938 -0.1723735   0.33477286]
[-0.37158531  0.30109116  0.12986416]
[-0.09908657 -0.08378603  0.07405169]
[ 0.30234635  0.15234207 -0.40157562]
[-0.27194926 -0.36618948 -0.22899446]
[ 0.12349567  0.13673447  0.2021703 ]
[ 0.22888477  0.23199719  0.06952322]
[-0.06424186  0.16327152 -0.20799826]
[-0.0410353  -0.01587461 -0.27393278]
[ 0.14513117  0.34771606  0.28819081]
[ 0.51785231 -0.19808    -0.32935148]
[ 0.27944413 -0.31782493 -0.29100284]
[-0.21834974  0.19767706  0.00045048]
[-0.34555188  0.02486589 -0.31172138]
[-0.33781698 -0.00954     0.41014704]
[-0.32547736  0.03890375 -0.18215787]
[-0.40787518  0.35694075  0.0497155 ]
[ 0.3095277  -0.21030729  0.2407355 ]
[-0.18784481  0.04164873  0.3723397 ]
[ 0.26689512 -0.09531032 -0.17629653]
[-0.08675404 -0.31274694 -0.18954663]
[-0.12874648 -0.19977829  0.13766456]
[ 0.11922409  0.36803299 -0.09658518]
[ 0.37456936 -0.00893938  0.39152214]
[-0.18971142 -0.24852702 -0.20049031]
[ 0.29483321  0.16244245 -0.10784896]
[ 0.05181573  0.18035915 -0.10612058]
[ 0.30940852 -0.18478228 -0.14648828]
[ 0.06889174 -0.04804339 -0.19356863]
[ 0.36248091  0.24086672 -0.1326742 ]
[ 0.14593074 -0.34933659  0.2448263 ]
[-0.09747584  0.33750346  0.18409257]
[ 0.24598101 -0.01363206  0.3024067 ]
[-0.5388459  -0.29935059 -0.51211661]
[ 0.03437461  0.00305347 -0.00079008 -0.00256118 -0.00170639 -0.00365006
 -0.06522077 -0.03457347  0.02292063  0.00397338  0.00173794 -0.01130151
 -0.01686918 -0.01477584 -0.10291363 -0.00621045  0.0270599  -0.00611296
  0.04860861 -0.00622657 -0.00295914 -0.00152675  0.00079013 -0.00083981
  0.05580963  0.06644288 -0.02887133  0.04138237  0.00071929 -0.00746746
  0.00299317 -0.00025096]
layer 1 Activation
relu
layer 2 MaxPooling2D
2 2
layer 3 Dropout
layer 4 Convolution2D
32 32 3 3
[-0.00215715  0.08006112 -0.0141974 ]
[ 0.10306913 -0.03085263 -0.04655048]
[-0.00401    -0.08402052 -0.02126584]
[ 0.04459426  0.03582909  0.04944779]
[-0.19187133  0.00260134  0.01564816]
[-0.0140915  -0.0004475   0.05359476]
[-0.02258549 -0.114925   -0.09206986]
[-0.11785968 -0.11460826 -0.04985631]
[-0.1102263  -0.02492418  0.02720162]
[-0.02654183  0.12797752  0.07651236]
[ 0.00150791 -0.13270307  0.00551753]
[-0.11720525 -0.11734279  0.05834777]
[ 0.08320438  0.01058083  0.14794435]
[ 0.01340642  0.06492554 -0.04823778]
[-0.07951017  0.13410993 -0.08173788]
[ 0.05339362 -0.07672307 -0.11440761]
[ 0.01814333 -0.00507815 -0.06563102]
[ 0.00960704 -0.10565747 -0.02755442]
[ 0.0095591   0.08719745 -0.05031445]
[ 0.06629005  0.08455863  0.0592113 ]
[-0.02653378  0.0484544   0.09983436]
[ 0.09623071 -0.04266633 -0.05183307]
[-0.01341989  0.07860692  0.0042319 ]
[ 0.00025554  0.0909171  -0.07212798]
[ 0.10557823  0.06370476  0.07607763]
[-0.0877011   0.15169853  0.07010026]
[ 0.11695081 -0.12021209  0.0955338 ]
[ -4.56405833e-05   7.59444013e-02  -8.29381216e-03]
[ 0.10433204  0.00572844  0.03688675]
[ 0.099422   -0.1025003   0.08261895]
[ 0.09377488 -0.08153803 -0.15286897]
[ 0.04068037 -0.14878872  0.07157722]
[-0.14577471 -0.13396256  0.10124535]
[ 0.07295401 -0.09460416 -0.0756721 ]
[-0.06917937 -0.08806034 -0.07279208]
[ 0.13229014  0.09276722  0.08640817]
[-0.0456321  -0.01537164  0.10705909]
[ 0.05152786  0.12908548 -0.01016968]
[ 0.0606069   0.10844633 -0.03717752]
[ 0.06415953 -0.00379987 -0.13728042]
[ 0.02940797 -0.05286815  0.07783476]
[ 0.01051123 -0.09903413 -0.07819127]
[-0.02932564 -0.03562544  0.05668119]
[ 0.07271819  0.09464736  0.0342612 ]
[-0.02538648 -0.10689017 -0.04768431]
[ 0.07493544 -0.00367469  0.05647789]
[-0.12214302  0.08436644 -0.01396493]
[-0.05325672 -0.10187841 -0.09375899]
[-0.15212142  0.07340417  0.13529408]
[-0.02761685  0.1114722  -0.00463358]
[-0.16916457  0.02358435 -0.02526067]
[-0.01263607 -0.09941791  0.00295021]
[ 0.15117124  0.07307019  0.01307548]
[-0.07077193 -0.11662206  0.09138922]
[-0.12138846  0.00519299 -0.02234798]
[-0.11034124  0.07441127  0.00231946]
[-0.02728426 -0.14911021 -0.05397994]
[ 0.05925168  0.10305361  0.11584004]
[-0.0092042  -0.11217814  0.03389603]
[ 0.04686426  0.03739975  0.02294234]
[-0.04686437  0.03915687  0.02270772]
[-0.07530014  0.02686149 -0.05491794]
[ 0.01386763 -0.03094894  0.03552261]
[ 0.1379347   0.02799422 -0.10956428]
[-0.11906581  0.13421121 -0.00357837]
[-0.0716121  -0.11974816  0.04231131]
[-0.09780313 -0.16125655  0.05594942]
[-0.0130336   0.10316575 -0.11605418]
[ 0.00696641  0.04145821 -0.0250734 ]
[ 0.02117935 -0.09487146  0.03429387]
[-0.00357391  0.06901341 -0.03154521]
[-0.06031168 -0.00695711  0.0191893 ]
[-0.11277423  0.01443459  0.12321234]
[ 0.08471342 -0.06687572  0.01635284]
[-0.10824463 -0.1352676   0.06248862]
[ 0.04560876  0.03112445 -0.03424878]
[-0.15133879  0.01045514 -0.15969358]
[-0.00501913 -0.08677664 -0.11115152]
[-0.08653086  0.01647276  0.03936325]
[ 0.09173825 -0.05080335  0.04130124]
[ 0.01306289  0.09492667 -0.02530186]
[-0.15295026 -0.12435524  0.09775314]
[ 0.0963309   0.06104213 -0.12536627]
[ 0.11012463  0.02599375 -0.1270199 ]
[ 0.05813557  0.11234954  0.01684707]
[ 0.0876212   0.01340379  0.0166451 ]
[ 0.01170303  0.06297611  0.05172675]
[-0.00708029  0.02872826 -0.03322789]
[-0.01563603 -0.05655559  0.01763395]
[-0.11913949 -0.05283786  0.0101729 ]
[ 0.10281631  0.0457914  -0.01618869]
[-0.09254866  0.08357964  0.00504676]
[-0.1066732  -0.01450334 -0.01107402]
[-0.08020478  0.11860426  0.09508698]
[ 0.07837019 -0.1007866  -0.06433817]
[-0.00623738  0.02574586 -0.04410928]
[ 0.00042074 -0.22103149  0.02553305]
[-0.21198379 -0.1415662  -0.09495125]
[-0.04623197 -0.00311161  0.08522215]
[-0.07284129 -0.26850513 -0.12635897]
[-0.12950045 -0.13145174 -0.11573465]
[-0.07111481 -0.10715258 -0.01913681]
[ 0.00787467 -0.00622633 -0.07311701]
[-0.00793616  0.03273561  0.00830768]
[ 0.04017301 -0.03376576 -0.07763173]
[ 0.02372751 -0.16160201 -0.0438334 ]
[-0.02545013 -0.1299292  -0.12181676]
[ 0.01069644  0.08736771 -0.14234599]
[ 0.06959777  0.07519519  0.01983763]
[ 0.21186352 -0.09051642 -0.09696391]
[ 0.16532306 -0.06649147 -0.04864389]
[ 0.04438033  0.00016997 -0.15163538]
[ 0.04302189 -0.01140898 -0.03157089]
[ 0.14950143  0.10775186 -0.08527523]
[ 0.08863148 -0.07607052 -0.02157813]
[ 0.11190535  0.15426143 -0.10481427]
[ 0.01235916 -0.07694601 -0.10859767]
[-0.05881184  0.06444    -0.11810362]
[-0.00765983  0.0813889   0.00272001]
[ 0.09944762  0.04847294  0.01245992]
[-0.09345314 -0.03072783 -0.02638367]
[-0.08909488 -0.05083976  0.10545389]
[ 0.01655961  0.13903251  0.09426691]
[ 0.04476392  0.04018499 -0.06274468]
[ 0.07605207 -0.04010656  0.04971134]
[-0.05203258 -0.05961     0.11615767]
[-0.23831727 -0.10108113 -0.14126395]
[-0.09082694  0.02532017 -0.06099157]
[-0.05710784 -0.22403158 -0.09585849]
[ 0.03206846 -0.04113564  0.0884077 ]
[-0.10225969  0.11250276  0.0050644 ]
[-0.06195662 -0.06037446  0.03779062]
[ 0.13092761  0.02873993 -0.13217533]
[-0.12955929 -0.00880424 -0.04608186]
[ 0.08316267 -0.07257651 -0.00276249]
[ 0.11197969  0.0162005  -0.13773766]
[ 0.13460225  0.03156526  0.05885938]
[ 0.01270773 -0.09914038 -0.10523687]
[ 0.09133938 -0.01810403 -0.05988796]
[ 0.08249559  0.05073595  0.01476475]
[ 0.03570048 -0.09330717 -0.17186023]
[ 0.08273816 -0.05159548 -0.17431238]
[ 0.1427777   0.07349338 -0.01512649]
[ 0.11496049 -0.1277031  -0.08089227]
[-0.11618845  0.03479143 -0.1483718 ]
[ 0.02665914  0.03696105  0.01895965]
[-0.20777664 -0.1329194  -0.03499795]
[-0.09748372 -0.00118418  0.03384667]
[ 0.02482112  0.09269622  0.01440688]
[-0.00401211 -0.02368113 -0.04096869]
[-0.1412105  -0.24614775 -0.15088408]
[-0.12672563  0.02935851 -0.06452695]
[ 0.08196288 -0.05399851 -0.02850589]
[-0.12785505  0.08908308  0.10849456]
[ 0.00930156 -0.07246935 -0.09127859]
[ 0.12628448 -0.02937884  0.10173415]
[ 0.01635714 -0.00420675 -0.17042638]
[-0.01191521  0.10753503  0.0340441 ]
[ 0.10454686 -0.01223139  0.00022912]
[-0.03675629 -0.08539963 -0.10763215]
[ 0.06452552  0.1437152  -0.05217563]
[-0.02323097 -0.07513715 -0.06695177]
[-0.0962832  -0.1317049  -0.21075632]
[ 0.0157825   0.01481813 -0.00552981]
[ 0.10101587  0.03751099 -0.01489637]
[-0.10417636 -0.0815194   0.02219474]
[ 0.038404   -0.02952139 -0.01351613]
[ 0.13974857 -0.02482553 -0.0705373 ]
[ 0.04003732  0.03766864  0.07130496]
[-0.0033948  -0.12309806  0.11128996]
[-0.08091541  0.05395404  0.20157857]
[-0.07568901  0.00869452  0.14310196]
[-0.08722521  0.07396746  0.03589812]
[ 0.0590339   0.12728214  0.01513682]
[ 0.08247618 -0.03935352 -0.14768863]
[-0.08735004 -0.06373724 -0.04693057]
[ 0.05842718  0.03176105 -0.02550234]
[-0.10388406 -0.11602672 -0.09617929]
[ 0.12231266 -0.14639483  0.1325331 ]
[ 0.06638077  0.07605638 -0.08943135]
[ 0.05118682  0.04774184  0.00533344]
[ 0.0447852  -0.10844243 -0.09501493]
[ 0.05830181 -0.02162923 -0.0388502 ]
[ 0.07109277  0.09601662  0.0955808 ]
[-0.0976025  -0.05489509  0.10240084]
[-0.09925579  0.03256485  0.0392979 ]
[-0.10002922  0.03135025  0.12352767]
[-0.04229906 -0.07355564  0.08460444]
[-0.04714279  0.04277335 -0.03113815]
[-0.18780054 -0.04154836 -0.03882221]
[-0.09482928  0.03444544 -0.03396461]
[-0.02790397 -0.06561196 -0.12351023]
[ 0.10396887 -0.02214011 -0.04853014]
[ 0.11494377 -0.02339057  0.25749564]
[-0.02442976  0.19166918  0.08701491]
[-0.27340913 -0.12182546 -0.10502893]
[ 0.01702198 -0.08715695  0.04781944]
[ 0.06243448 -0.12945433 -0.08216435]
[-0.02991799  0.03656799 -0.03272596]
[ 0.09013111 -0.00678521  0.08311108]
[-0.03547724 -0.03102081 -0.01328351]
[-0.08838861  0.01106443 -0.08415206]
[-0.06179613 -0.05468144  0.05286804]
[ 0.11137497  0.10050084 -0.16383749]
[ 0.17054482  0.11229341 -0.00552942]
[ 0.14984377  0.18324836  0.1255855 ]
[ 0.02787336  0.06332415 -0.11491924]
[-0.05304622  0.07079301 -0.01785191]
[-0.11450183 -0.04612487 -0.10839015]
[ 0.05727823  0.08437641 -0.02028099]
[-0.0151064   0.11938085  0.14138229]
[-0.05761106  0.01550442 -0.09941574]
[-0.09055102  0.1139615   0.00589871]
[ 0.04061849  0.07133805  0.03666069]
[-0.13837293  0.13461153 -0.0573448 ]
[-0.08019034  0.06189388 -0.02054633]
[-0.02559446 -0.0357271  -0.05737048]
[-0.1121157  -0.10941925 -0.041825  ]
[-0.1489843  -0.05483928  0.01288321]
[-0.03613114  0.20031509  0.00208757]
[ 0.14108066 -0.04774351 -0.13349469]
[ 0.0169751   0.08287185 -0.01629952]
[-0.05964724 -0.10120439 -0.07486086]
[-0.17411819 -0.11754694  0.01706412]
[-0.00968512 -0.01649787  0.03972789]
[ 0.08442231  0.07415938  0.12715545]
[ 0.07973957  0.13127883 -0.00111043]
[-0.12573531 -0.11474328 -0.10076651]
[ 0.02528808 -0.02873849  0.05811331]
[-0.05457068 -0.1200339   0.01499256]
[ 0.01005971 -0.15176068 -0.0652338 ]
[-0.0705559   0.02029894  0.02989931]
[ 0.00910875 -0.00447737 -0.07725386]
[ 0.05122069 -0.00890686 -0.17755912]
[ 0.12696816  0.15696345 -0.03404754]
[-0.04371725  0.12047234  0.01471241]
[-0.08402783 -0.13203923 -0.15525246]
[-0.04101361  0.05076555 -0.07820839]
[-0.12050652  0.08163802 -0.08150987]
[-0.01600896 -0.04723214 -0.07273458]
[ 0.07465876 -0.14579865 -0.13957837]
[-0.04104697  0.05887937 -0.13837396]
[-0.05163737  0.02241779  0.03217153]
[ 0.11072022 -0.00506853  0.08243555]
[-0.13079149  0.01180123 -0.06655298]
[ 0.03315708  0.09084392 -0.16875079]
[ 0.01293225 -0.14794752  0.03688691]
[-0.0228367   0.00723606  0.15128499]
[ 0.09763583 -0.08705144 -0.02307711]
[-0.06400351  0.1180338   0.00485404]
[ 0.09304266  0.09631876  0.09598029]
[ 0.10876689 -0.06252688  0.03007689]
[-0.06339389  0.07102314  0.07387616]
[-0.10178936 -0.01518664  0.0289544 ]
[-0.12983918 -0.09362797 -0.13559651]
[ 0.09314107  0.06878072 -0.12273721]
[ 0.01314238 -0.02207789  0.09757569]
[ 0.0229891  -0.03079431 -0.11477043]
[-0.06504047 -0.02344602 -0.07174989]
[-0.08782387 -0.0419498   0.04874418]
[-0.0690498   0.04384333 -0.09231007]
[ 0.02111667 -0.03054588 -0.09530854]
[ 0.0790569   0.0960684  -0.11328732]
[-0.05088405  0.09223825  0.00543753]
[-0.13987716  0.11416113  0.1669236 ]
[ 0.02491115 -0.16751279  0.12468626]
[ 0.05298373  0.15737535 -0.00876066]
[ 0.04597997  0.03109851 -0.0517383 ]
[ 0.16666985  0.1307517  -0.09979528]
[-0.00049185  0.10671546  0.02613567]
[-0.07990155 -0.03856518 -0.11965231]
[-0.05698613  0.06265531 -0.16109358]
[-0.07853429 -0.0781676  -0.21075197]
[-0.01189963  0.10739464  0.08345309]
[-0.05163895  0.06138653 -0.05526662]
[-0.10111702  0.0022085  -0.10137304]
[-0.08799259 -0.03203243  0.10907605]
[ 0.01943393 -0.00739062  0.17627628]
[-0.10949612  0.13520332 -0.1392393 ]
[ 0.00428955  0.08235     0.03833171]
[ 0.05361584 -0.08981056 -0.06571974]
[ 0.08285177  0.05153302 -0.12138995]
[-0.11718158  0.03554254  0.00985362]
[-0.07242963 -0.07352892  0.14338771]
[-0.12373111 -0.09586473 -0.15447192]
[-0.05575037 -0.00717507 -0.00496037]
[-0.0387635   0.05417147 -0.01817277]
[ 0.17403859 -0.03720461  0.20390145]
[-0.16817236  0.08781268  0.08655719]
[ 0.09991086 -0.0787122   0.13499169]
[ 0.08331931  0.11185636  0.10107645]
[-0.03790301  0.06682386  0.00935906]
[ 0.1226645  -0.06971143 -0.05440566]
[-0.08726218 -0.12809432 -0.03144978]
[-0.12449297 -0.09121829 -0.10217064]
[ 0.08071241  0.06987323 -0.13160242]
[-0.05228719  0.04569359 -0.01021428]
[ 0.05802565  0.15378575  0.12079782]
[ 0.04816958 -0.00317278 -0.11982916]
[-0.1281087   0.03987781  0.1006662 ]
[-0.00509487  0.01306111  0.20681866]
[-0.07784533 -0.007014   -0.09415722]
[-0.12632945  0.04113707  0.1283728 ]
[ 0.118714   -0.00193476 -0.12895299]
[ 0.10494167  0.03101723 -0.04660265]
[ 0.04429055  0.03658368  0.08636592]
[ 0.05125923  0.03751941 -0.04996197]
[ 0.0049446  -0.06741907 -0.0284628 ]
[ 0.09168069 -0.08802714  0.04858341]
[ 0.05491714  0.05436688  0.14062707]
[ 0.04734654  0.0473415  -0.00558501]
[ 0.00854262 -0.067323   -0.05710824]
[-0.12204029  0.12418634 -0.07988139]
[-0.06198781 -0.09431992  0.07833726]
[ 0.09450559 -0.02880131  0.03443182]
[-0.07383957  0.08022543  0.21496007]
[-0.12866938  0.0875913  -0.0010152 ]
[-0.09805535  0.08723109 -0.12666367]
[-0.03965032 -0.00993414  0.03415924]
[ 0.08195968  0.04057895 -0.13867268]
[ 0.02257008 -0.07117967  0.01361698]
[ 0.06500901  0.0438172   0.09409214]
[ 0.08375438 -0.11520834 -0.08406315]
[-0.12704961 -0.10226457 -0.06296945]
[-0.03444996  0.02656818 -0.12229446]
[-0.02404781  0.08839386  0.01649272]
[-0.02399351  0.06507158  0.01476836]
[ 0.10545391 -0.04586674 -0.00101042]
[ 0.04341135  0.0574978  -0.13792394]
[ 0.06500306 -0.14137134  0.10016021]
[-0.06290442  0.06066661  0.00570349]
[-0.11770673 -0.05649126 -0.10905974]
[-0.03483259  0.05558692 -0.07948516]
[ 0.06263675  0.06833222  0.13131016]
[ 0.11994649  0.00418919 -0.14205474]
[ 0.05802939 -0.14505741  0.08551061]
[-0.14282767  0.12017192 -0.02532554]
[-0.06044049  0.04281671  0.03057155]
[ 0.05866637  0.10608672  0.04539423]
[ 0.03626094  0.11688264  0.05811256]
[-0.02932586  0.04609336 -0.13839112]
[-0.08190296  0.07163334 -0.00599547]
[-0.13010575 -0.08369091  0.03160506]
[-0.05058177 -0.06652653 -0.01658014]
[-0.00212349  0.17181455  0.06816013]
[-0.07790142  0.03984404 -0.06923233]
[-0.1040262   0.07162578 -0.05657234]
[ 0.01819823 -0.13344124 -0.11702307]
[-0.00698056 -0.00664812  0.08296653]
[-0.05285445 -0.03617011  0.01869651]
[ 0.03587087  0.09476184 -0.04318478]
[-0.01060257  0.10610531  0.16123025]
[-0.08095478  0.07710078 -0.0845326 ]
[ 0.00747453 -0.05801954 -0.11399993]
[ 0.0164472   0.10896381 -0.04458168]
[-0.04336872  0.02008927 -0.00972138]
[ 0.08160099  0.05342866  0.03494422]
[ 0.12128106 -0.04986958 -0.10095224]
[-0.10344014  0.03274667 -0.04308706]
[-0.06397381 -0.04206019 -0.08560827]
[-0.00024144 -0.05145115 -0.04140458]
[ 0.02759336  0.06319133  0.13738005]
[-0.01045155 -0.06234884  0.0156719 ]
[ 0.00165098  0.14760409  0.03694572]
[ 0.11923342  0.00480717  0.0250828 ]
[ 0.11444855 -0.15367422 -0.08592596]
[ 0.07831614 -0.0823563   0.10495818]
[ 0.00089515 -0.07031727 -0.02514967]
[-0.00295104 -0.08034982 -0.08644611]
[-0.09509254  0.0273677   0.09508032]
[-0.09561783  0.14627679  0.02546806]
[-0.08715849 -0.04568196 -0.11952184]
[-0.04368022 -0.14752629  0.16780497]
[ 0.07639857  0.06312451  0.07097606]
[ 0.12262399  0.05125703  0.06601456]
[ 0.11503121 -0.11583943  0.06325898]
[-0.02148486  0.03950593 -0.0316723 ]
[ 0.11820687 -0.10035423 -0.14770377]
[-0.03955615 -0.13095295  0.07999224]
[-0.0543985   0.01493022  0.0631265 ]
[-0.00777524  0.08700837 -0.13199396]
[-0.10934224  0.05563477  0.08402595]
[ 0.07948396 -0.06423598  0.11378575]
[-0.05757085  0.1304487  -0.05887891]
[-0.12684619 -0.23238614 -0.09398368]
[-0.17938867 -0.05876461 -0.00378697]
[-0.1027348   0.07666332  0.0393355 ]
[ 0.05053192 -0.01026204  0.14934818]
[ 0.19243571  0.0439253  -0.15617578]
[ 0.08103854 -0.15338133 -0.03242799]
[ 0.05087578  0.11245039  0.07002278]
[ 0.11035851 -0.0253777  -0.02271998]
[ 0.07420647  0.03548774  0.029725  ]
[-0.03314758 -0.05240624  0.11677048]
[ 0.06304301  0.09535845 -0.10235942]
[ 0.15474655  0.01554117  0.07268233]
[ 0.02115578  0.04438194  0.06014395]
[-0.09151998  0.02147566 -0.10539094]
[ 0.09818242  0.07793855 -0.17441785]
[-0.12234177  0.04662488  0.12777594]
[ 0.07135106  0.1069464  -0.0565331 ]
[-0.03790265  0.01027773  0.0433465 ]
[-0.11003236 -0.04680821  0.01551108]
[-0.02097112  0.043206    0.07077089]
[ 0.07095656 -0.1218855  -0.15108176]
[-0.10088731 -0.06442533  0.14941727]
[-0.04053108  0.0722955   0.04016875]
[ 0.13908353  0.00163401 -0.17686175]
[-0.1208748  -0.17005749 -0.0584717 ]
[-0.14723679 -0.04243692  0.13703811]
[ 0.06716427  0.03040713  0.13733558]
[ 0.06247775  0.03842924 -0.07664438]
[-0.13562043 -0.04526518 -0.14260952]
[-0.04601676 -0.14673989  0.05561981]
[ 0.06596168  0.12217309  0.0750442 ]
[ 0.1433668  -0.02498349 -0.04133278]
[-0.09667882 -0.01630281 -0.06242437]
[-0.02019569 -0.0838718  -0.10364464]
[ 0.04544717  0.08092299  0.11295801]
[-0.05159624  0.0829866  -0.05734457]
[ 0.0280528  -0.08862103  0.10609478]
[ 0.05196441  0.11247198 -0.13007668]
[ 0.12321667 -0.04328061  0.02564338]
[ 0.09289049 -0.05219669  0.09257838]
[ 0.06059514  0.08606999 -0.09531358]
[-0.12251438 -0.09057566 -0.04939727]
[ 0.08701055 -0.05348433  0.02651119]
[ 0.10650244 -0.09091941 -0.1021042 ]
[ 0.11911511 -0.04956478 -0.07653844]
[-0.13004637  0.10947454  0.05910281]
[ 0.08697075  0.02361213 -0.09922365]
[ 0.04106652  0.01753831 -0.00387248]
[ 0.03832395 -0.01566156 -0.10053043]
[-0.05859087 -0.19806744 -0.11973123]
[-0.12474906 -0.0518452  -0.15452993]
[ 0.06329028  0.09357507  0.1200828 ]
[-0.1094366  -0.05451657  0.0473725 ]
[-0.10798781  0.00475318  0.05176839]
[ 0.08641974  0.07254752  0.10833208]
[-0.05123794 -0.09581358  0.22809078]
[ 0.15848824  0.16766655  0.04451172]
[-0.02031016 -0.15016606 -0.0489438 ]
[-0.09798229  0.16170047  0.16168465]
[-0.01254923  0.09521822  0.06308404]
[-0.09838561  0.05426876 -0.06832982]
[-0.09336376 -0.01828134 -0.03792923]
[-0.05420895 -0.12625135 -0.01295419]
[-0.05391693  0.15716669  0.05515075]
[-0.08318015  0.15047531  0.0802286 ]
[ 0.18758754  0.16095811  0.03434712]
[-0.0044184  -0.01744165 -0.05019297]
[ 0.14900619 -0.00200504 -0.18401626]
[ 0.03716176 -0.16674225 -0.04805338]
[-0.05190407  0.00986863 -0.10301095]
[-0.10506481 -0.01614875 -0.10784069]
[ 0.01859304 -0.13891464 -0.12211266]
[-0.07830751  0.06437071  0.12557772]
[-0.07219362  0.06065883  0.01609475]
[-0.10749725  0.19895917  0.17926   ]
[-0.0038272  -0.04346813  0.02158583]
[-0.0072072  -0.08008329  0.04013209]
[ 0.05056334 -0.14520794 -0.00470924]
[-0.05972654  0.10621057 -0.04207905]
[ 0.04316398 -0.04165492  0.08513615]
[-0.0491564   0.02561542  0.02839256]
[ 0.01707598 -0.03310505  0.11861838]
[-0.06448333 -0.01547744  0.05699696]
[-0.05513138  0.21167709  0.01690218]
[-0.13239886  0.09024475  0.10641718]
[-0.07382992 -0.05974365  0.03698965]
[-0.10581151  0.05421136 -0.05154322]
[-0.09909514 -0.09737182  0.07967382]
[ 0.00054359  0.02415595 -0.07022195]
[-0.01280198  0.07348754 -0.09914552]
[-0.04597314  0.09566873 -0.08372087]
[-0.11982886 -0.056556    0.15984578]
[-0.05818702 -0.09996438 -0.10217081]
[-0.09991546 -0.12886122  0.01914944]
[-0.13073996  0.09662773 -0.02382084]
[ 0.02141052 -0.08557183 -0.10638107]
[-0.05122925 -0.04931241  0.06696393]
[-0.00135874 -0.07785311 -0.07326619]
[ 0.05729007  0.1118493  -0.0999492 ]
[-0.04135139 -0.21060219 -0.1985752 ]
[-0.1254326   0.06933247  0.00341063]
[-0.09080181 -0.10292615 -0.00347602]
[-0.15710232 -0.11479302  0.13733748]
[ 0.07998358 -0.10202328 -0.0736419 ]
[ 0.09924429 -0.03603513  0.02357904]
[-0.01484169  0.03729127  0.02782759]
[-0.12319905  0.04526277 -0.00942154]
[ 0.1164581   0.18977785  0.10707404]
[ 0.02276587  0.12043124  0.22590911]
[ 0.0910115   0.00678463  0.12594281]
[ 0.04593929  0.00981316  0.08535606]
[ 0.06089033 -0.03380379  0.02300928]
[ 0.02989259  0.03605493  0.03535677]
[-0.13074841 -0.10615278 -0.09585252]
[-0.10923683 -0.07682655  0.11397739]
[-0.17009525  0.00322981  0.00420243]
[ 0.04667094  0.1118324   0.08389598]
[-0.15885849  0.05739998  0.09725877]
[-0.11482491  0.08087902 -0.10408057]
[-0.14714988 -0.00923707 -0.08553149]
[-0.04986306 -0.05161973  0.13391663]
[-0.12614715 -0.02061159 -0.03051522]
[ 0.01274653 -0.13489637 -0.06203983]
[ 0.27634349  0.21968356 -0.03272187]
[ 0.20505501  0.15542635  0.00593161]
[ 0.08420898  0.15738377  0.20232958]
[-0.00053231 -0.18070216 -0.09104724]
[ 0.01232574 -0.05766814 -0.16629542]
[-0.09867077 -0.12651509 -0.06808947]
[-0.12218428 -0.04544655 -0.00458947]
[-0.10339428  0.10443758  0.10604753]
[ 0.03262889  0.03582319 -0.04227038]
[-0.08258308 -0.06546102 -0.07132308]
[-0.03285584  0.01775211  0.14512138]
[-0.08651436  0.08002133  0.08200508]
[-0.00161018 -0.06253338 -0.04028618]
[ 0.00513684  0.02759513 -0.00960469]
[-0.06942963  0.03787347 -0.00231753]
[ 0.05565853 -0.01355991  0.03497477]
[ 0.02713484  0.02606666  0.09388624]
[-0.02949906  0.07384367  0.1323324 ]
[-0.0091723   0.13020125  0.01063732]
[-0.06800082 -0.09665255 -0.02299047]
[ 0.02754598  0.01795138 -0.05947782]
[ 0.01240336 -0.05256226 -0.06628086]
[ 0.02877119  0.11571012 -0.05602968]
[ 0.00934673 -0.12809202  0.07915145]
[-0.04197643 -0.02728582  0.07281943]
[-0.18362039 -0.09559762 -0.00517588]
[-0.13192014 -0.11618779  0.05470267]
[-0.00572004 -0.04953559 -0.01850969]
[ -7.81496929e-05  -9.14192665e-03  -3.20218652e-02]
[-0.09513406 -0.10302079  0.00843312]
[ 0.04569586  0.0921839  -0.01910639]
[-0.01610619 -0.0260418   0.08660677]
[-0.075386    0.00121959 -0.06736472]
[-0.02624579  0.05683296 -0.0213551 ]
[-0.05199306  0.09363812 -0.03177553]
[ 0.03480321  0.12613928 -0.04470927]
[-0.15236941  0.04797922 -0.05233449]
[-0.11605839 -0.11051705  0.09466975]
[-0.04834396 -0.06344187 -0.02252644]
[-0.18247788 -0.13412566 -0.10312719]
[-0.13040866 -0.04965794 -0.03310132]
[ 0.00839283  0.02775478 -0.0976051 ]
[ 0.04488445 -0.06003987  0.02568055]
[-0.05501786  0.0214978   0.15429594]
[-0.02851038 -0.04834642 -0.01511567]
[-0.04827227  0.0108676  -0.07709459]
[-0.08101013 -0.0776558   0.01724995]
[ 0.08930472  0.06371259 -0.07267076]
[ 0.06011961 -0.09052249 -0.11009181]
[-0.07638051  0.08814601 -0.12204435]
[-0.11021011  0.07307452 -0.11397597]
[-0.00108184  0.06555133  0.05610929]
[ 0.04060489 -0.04082025  0.09312347]
[ 0.03914997  0.01190242 -0.06111501]
[-0.07023591 -0.17461838 -0.01741949]
[-0.16886461 -0.1642487   0.04229371]
[-0.13425077 -0.03350261  0.09476575]
[ 0.04421643 -0.054623    0.14695852]
[ 0.0023896   0.11663215 -0.0492274 ]
[ 0.06979751 -0.06650593  0.06050916]
[-0.12671165  0.08748877  0.16063923]
[-0.20752704 -0.13082884 -0.02372048]
[ 0.06011589 -0.12467968  0.01600673]
[-0.20369685 -0.13983835  0.08708536]
[ 0.0613498  -0.02590103 -0.08381876]
[ 0.04837869 -0.04132587  0.08176863]
[ 0.02593053 -0.07083331 -0.05767386]
[ 0.07403721  0.0407038   0.03128511]
[-0.03640731 -0.05672777  0.06792624]
[-0.10303649 -0.08797133 -0.17140625]
[-0.01191055 -0.20964982 -0.11420237]
[-0.20916483 -0.2054251  -0.16252421]
[-0.02482503 -0.20614459 -0.01442835]
[-0.02952089 -0.08497784 -0.00518321]
[ 0.05928868  0.04178544 -0.12541083]
[ 0.03519984 -0.00549552  0.03677057]
[-0.01086754 -0.00374555 -0.07759096]
[ 0.00537672 -0.08501583 -0.0490055 ]
[-0.10027206  0.06929812  0.00517445]
[-0.0890813  -0.12524019 -0.07270324]
[ 0.08333275  0.07939512  0.11100871]
[ 0.13556407  0.09450526  0.22602691]
[-0.00878461  0.18892673  0.18700601]
[ 0.006583    0.17287861  0.15939772]
[-0.08636529 -0.0222857   0.01401721]
[ 0.06303727 -0.01580017  0.04923785]
[-0.05576545  0.01545606  0.04930176]
[-0.0037993  -0.02439953 -0.07519836]
[ 0.08434985  0.07167329 -0.06534425]
[-0.03254652  0.02272733  0.06025302]
[-0.06989446  0.03742607 -0.02436409]
[ 0.00753734  0.10111114  0.07550739]
[ 0.06970736  0.06503392 -0.10466457]
[ 0.06159175  0.15085056  0.13929507]
[-0.03411535 -0.03027476 -0.06463761]
[-0.03768039  0.01553022 -0.04500512]
[ 0.22077711  0.1375443   0.20102593]
[ 0.19434959  0.16911389  0.1045306 ]
[ 0.01170131  0.0746359   0.15615709]
[-0.19358446 -0.12522738 -0.12841052]
[-0.21087201  0.03235906 -0.05007448]
[ 0.04559312 -0.04609043 -0.03209402]
[-0.02153523 -0.04043407 -0.09355586]
[-0.12726536 -0.02347265  0.09798811]
[ 0.03225114  0.09623244  0.04218792]
[ 0.10479234  0.08917061  0.0090146 ]
[-0.1144421  -0.08371926  0.00140153]
[-0.06470391 -0.02425492  0.04906589]
[ 0.0724626  -0.04649889 -0.07451674]
[-0.05057525  0.07486472  0.10741867]
[-0.06357884 -0.02960075  0.03112999]
[ 0.11034245  0.09003557 -0.08700363]
[ 0.12815507 -0.10074836 -0.10367351]
[-0.089052    0.08800492  0.09542784]
[-0.0194276  -0.04110483  0.11778034]
[ 0.12703614  0.11051276 -0.109     ]
[ 0.01354573 -0.00562902 -0.09404901]
[ 0.09159172 -0.0525826   0.17353657]
[ 0.06051965 -0.15167361 -0.09898697]
[ 0.06155289  0.0353692   0.05525571]
[-0.09991951  0.03215202  0.04915059]
[-0.04780769  0.0355194   0.0841257 ]
[-0.09996713 -0.03641985  0.07082813]
[-0.07686681 -0.09581068 -0.00671899]
[-0.21651968 -0.20847993 -0.08462438]
[-0.09647471 -0.17238811  0.01135874]
[-0.02017527 -0.10352247  0.10558562]
[-0.13487722 -0.00014676 -0.06547245]
[ 0.04229976 -0.00699275 -0.07449122]
[ 0.02855635  0.11338362 -0.08030916]
[ 0.07750868  0.00105041  0.06917307]
[-0.04065665 -0.01154198 -0.12100865]
[ 0.00268506  0.07561027 -0.01127355]
[-0.02767577  0.12625277 -0.09506774]
[ 0.11142191  0.05837829 -0.00229853]
[-0.16329746  0.00370348 -0.02864473]
[ 0.0135806  -0.14662008 -0.03638683]
[ 0.07366176 -0.16123283  0.04021867]
[ 0.01024279 -0.08923583  0.00594373]
[ 0.04844239  0.01354889  0.10869651]
[-0.01232458 -0.06074124 -0.01344845]
[-0.172888    0.12647085  0.03341153]
[-0.04100165 -0.05171211  0.12197304]
[ 0.10530523  0.10663461 -0.07516269]
[-0.13151468 -0.15359166 -0.16288431]
[-0.00608027 -0.17456523 -0.03785815]
[ 0.06442708 -0.02021038 -0.08258941]
[ 0.11348801 -0.04072131  0.02867255]
[ 0.09082307 -0.01128879 -0.00906077]
[-0.10484141  0.01215934  0.09322517]
[ 0.00516702 -0.1625413  -0.00199259]
[-0.13510926 -0.09051774 -0.05063149]
[ 0.05918356 -0.07307355  0.01998616]
[-0.08518278 -0.09579094 -0.03518844]
[ 0.09191443  0.07035413  0.1020057 ]
[-0.03430817  0.05986963 -0.07857074]
[ 0.05892535  0.02955664 -0.03616965]
[-0.14395989  0.09326642  0.0317453 ]
[-0.02842975  0.01142541  0.14083613]
[-0.07902675  0.02452622 -0.09910863]
[-0.00935586  0.06535132 -0.08936619]
[-0.01722615 -0.00467556  0.03207901]
[ 0.06229472 -0.01700405 -0.13273104]
[-0.11705118 -0.02608764 -0.15862037]
[-0.04808314 -0.06183364 -0.13699786]
[-0.01950063 -0.01676338 -0.11637517]
[ 0.00328106  0.04678449  0.02267646]
[ 0.0710225   0.06739232 -0.17057823]
[ 0.01268981  0.04359217 -0.11122745]
[ 0.01391626 -0.05530867  0.02059185]
[-0.11787444 -0.02585023 -0.10855556]
[-0.05307515 -0.00979878  0.11675691]
[-0.13019119 -0.07027374  0.06693098]
[-0.0662743  -0.12510081  0.02517092]
[-0.06694692 -0.1373319  -0.07774139]
[-0.01901503 -0.11802188 -0.11233874]
[ 0.14939079  0.11960585 -0.12847328]
[ 0.08937043  0.18329743 -0.05228651]
[ 0.14685899 -0.03567829 -0.02943883]
[ 0.10088315 -0.03335194  0.13580664]
[-0.01573145  0.06010327  0.01499931]
[-0.17816079  0.04349568  0.0340376 ]
[-0.15933239 -0.01462434 -0.05695528]
[ 0.04729154 -0.06219695 -0.01299026]
[ 0.05958021  0.03138977  0.13855742]
[-0.08048717  0.09244254  0.04433042]
[-0.05254062  0.09051336  0.13417116]
[-0.08721848  0.09997903 -0.00731489]
[-0.01253763 -0.12653022  0.11613908]
[ 0.0889203   0.07071868  0.05021238]
[ 0.09802289 -0.11502975 -0.11401968]
[ 0.11888035 -0.19658192  0.04816644]
[ 0.06436202  0.113113   -0.0460731 ]
[ 0.04793233  0.11679307  0.00685056]
[ 0.07654309  0.19631493 -0.06252898]
[ 0.02945166 -0.1329059  -0.00808271]
[-0.17658243 -0.07941485  0.05370986]
[-0.19173828 -0.16282259  0.02153134]
[ 0.04683728  0.14678562  0.07038057]
[-0.16198511 -0.09335065  0.11997399]
[-0.09366199  0.0762756   0.01370437]
[ 0.09482069 -0.01757959  0.10478459]
[-0.0913572   0.06520744 -0.03450705]
[ 0.03736715 -0.05841088  0.04034709]
[-0.06985397  0.09569376 -0.06770115]
[-0.06341495  0.0277278   0.0969376 ]
[-0.17274365  0.09989443  0.0472659 ]
[ 0.09898458 -0.08874476 -0.04545264]
[-0.03827335  0.14972797  0.11064637]
[-0.14921698 -0.07901177  0.02862185]
[ 0.11076315 -0.13419503  0.01863975]
[ 0.05864664 -0.05698774  0.12876128]
[ 0.06743218  0.08276609 -0.02945222]
[-0.08895203 -0.0484857   0.00413383]
[-0.03482526 -0.08422656 -0.10437332]
[-0.12144598 -0.12528791 -0.16631584]
[-0.07548237 -0.061189   -0.04111269]
[-0.1069105   0.09841709  0.01263758]
[-0.20640659 -0.05386287  0.0578647 ]
[-0.08771178 -0.14743303  0.0071414 ]
[ 0.03765756  0.04229951 -0.14809814]
[-0.10949209  0.00221494 -0.15632981]
[ 0.06535783 -0.08173697  0.02263482]
[-0.10210881  0.01648615  0.01916407]
[-0.09226742 -0.08270361 -0.03829209]
[ 0.01338156 -0.10108418  0.13362929]
[-0.02413573  0.07410143  0.05964943]
[-0.11217757 -0.07046656 -0.00153786]
[ 0.06749136 -0.07978582 -0.04564421]
[ 0.08305007 -0.13188808 -0.05653818]
[-0.10314018 -0.10577933  0.12594147]
[-0.05752871 -0.03841237  0.02914401]
[-0.18963583  0.08254034 -0.04545149]
[-0.09038487  0.07257681  0.06404522]
[-0.10851109  0.14801423  0.0587976 ]
[-0.0607927   0.11049619 -0.0286839 ]
[-0.0327285   0.04054044  0.08459891]
[-0.14968894 -0.04163305 -0.06230423]
[-0.16298755 -0.18010238 -0.0977957 ]
[ 0.13822763 -0.16233994 -0.05493394]
[-0.05324481 -0.07971661 -0.1608583 ]
[-0.09030362  0.08779693 -0.18058887]
[ 0.12073208 -0.08765724 -0.0706687 ]
[-0.03842467  0.01691739  0.1335838 ]
[ 0.03548658 -0.00917266 -0.03946856]
[-0.12956218  0.08431477  0.0788159 ]
[ 0.06291667 -0.13159621 -0.17047033]
[-0.03387553  0.0241987   0.0082627 ]
[ 0.11894473 -0.07718271 -0.11795199]
[ 0.10900062  0.04604869  0.12680657]
[ 0.08181725 -0.0039504   0.0994244 ]
[-0.00397217 -0.0981466  -0.01831413]
[-0.00084256  0.01310203  0.02491934]
[ 0.00985039 -0.10122269 -0.0644506 ]
[-0.22187567  0.01934884 -0.02306869]
[-0.04090409 -0.05234093 -0.02951281]
[-0.09592941 -0.14250971 -0.07870913]
[-0.18545164 -0.07726382  0.09220675]
[-0.05064826 -0.1281701   0.00314667]
[-0.06549355  0.05807027  0.04740547]
[ 0.05574061  0.08780139 -0.01213467]
[ 0.18608381  0.02655204 -0.04584599]
[ 0.04218949 -0.03723162  0.10098822]
[ 0.1501511  -0.12257212 -0.08520483]
[-0.10210758 -0.01045372  0.01987807]
[-0.07505371 -0.18138979  0.01372768]
[-0.10847861 -0.17029861  0.01204073]
[ 0.09111568 -0.15086411 -0.0474315 ]
[-0.05612695  0.03211501 -0.06219381]
[-0.02243576 -0.14154485 -0.10503053]
[ 0.14299585 -0.06825402 -0.12993573]
[ 0.02392047 -0.12045286 -0.06143188]
[ 0.01575504  0.06015643  0.0262384 ]
[-0.06248434 -0.00992003 -0.1256098 ]
[ 0.08328196  0.06871864  0.11687033]
[ 0.01959796  0.02733214  0.09860588]
[ 0.12195772  0.09512142 -0.10834412]
[-0.1137174  -0.12203021 -0.02576457]
[-0.17403024 -0.17724536 -0.0977599 ]
[-0.01787858  0.07330358  0.02594587]
[ 0.02684551 -0.07612712  0.01552441]
[-0.02486352 -0.12554429 -0.08327332]
[ 0.05893219  0.1215043   0.0780739 ]
[-0.05767255 -0.16494069  0.0389453 ]
[ 0.06751355 -0.04669675 -0.16772848]
[ 0.03898626  0.04385959  0.21057087]
[ 0.11717544 -0.05572615 -0.0848167 ]
[-0.01623846  0.08113891 -0.06077225]
[-0.14092892 -0.05076622  0.10416614]
[-0.05263994  0.06879383 -0.00903523]
[ 0.01845842 -0.09048443  0.031478  ]
[-0.17402312 -0.03994456 -0.03553116]
[-0.23017751 -0.11293656 -0.08230767]
[-0.00768666 -0.02664806  0.03141378]
[  1.39714226e-01   1.17182033e-02  -3.91589128e-05]
[-0.05252062  0.0539743   0.08499354]
[-0.04549311 -0.05451354 -0.12245241]
[-0.06196135 -0.07708766 -0.10096348]
[-0.11201713  0.01973835  0.06345164]
[-0.07523677 -0.07198431 -0.06112972]
[ 0.06540637 -0.09460759  0.01610458]
[-0.1164456   0.00481397 -0.02983424]
[-0.09387257 -0.1153627  -0.01397454]
[ 0.12089208 -0.02942753 -0.11733035]
[ 0.12748559 -0.06616385 -0.05672164]
[ 0.01540059  0.06961694  0.02856486]
[-0.00912784 -0.0896141  -0.00533932]
[-0.09085534 -0.09275654 -0.06890956]
[ 0.03242155 -0.05188105  0.07402478]
[-0.06797749  0.03499756  0.06324741]
[ 0.04639956 -0.16033702 -0.14127494]
[ 0.13471468 -0.10917789 -0.12277862]
[ 0.04043674 -0.03757143 -0.0706878 ]
[-0.01034013  0.03246407  0.05192108]
[-0.11608068 -0.13301946  0.02520095]
[ 0.04984905  0.17085452 -0.0511836 ]
[ 0.25044033  0.13939604  0.0292133 ]
[ 0.01225426  0.00507775  0.09498021]
[ 0.18669881 -0.02770339 -0.02401337]
[ 0.09428524  0.11482203 -0.10406163]
[-0.01479926  0.03437899 -0.14932467]
[ 0.15489513 -0.07963625 -0.03112761]
[-0.02063245 -0.0696947  -0.12305701]
[-0.02130007 -0.07860591 -0.01528536]
[ 0.07937468 -0.05854898  0.00150855]
[ 0.08656093  0.05580333 -0.02519996]
[-0.15640491 -0.18750452 -0.07996345]
[ 0.01970408 -0.15399013 -0.05339406]
[-0.15953608 -0.11412054  0.02788194]
[ 0.05925481 -0.12290572 -0.01598312]
[-0.05324197  0.07316422  0.10293742]
[-0.03540988 -0.08027058 -0.00523842]
[-0.19269624 -0.01405045  0.07202647]
[-0.03841438  0.13498919  0.08445554]
[ 0.05928441  0.12327183 -0.08539211]
[ 0.09888688 -0.12764974  0.01099683]
[ 0.09377762 -0.04937464 -0.07719458]
[-0.13910609  0.01972862 -0.10128035]
[ 0.10388301  0.09173558  0.03170149]
[-0.04018755 -0.00373275  0.00630319]
[-0.0455483  -0.17463626  0.03688806]
[-0.12853579 -0.07848752 -0.07552461]
[-0.00206525  0.18281625  0.19654718]
[ 0.04445628 -0.03232631 -0.02835982]
[ 0.08395346 -0.03771272 -0.0022197 ]
[ 0.20851576  0.18516225  0.08601122]
[-0.00443458  0.09455304  0.01538298]
[-0.01153293 -0.11778221 -0.08765841]
[ 0.11826548  0.19366048  0.02004337]
[ 0.14549446 -0.03459251 -0.00571971]
[ 0.06441106  0.00955236 -0.10782573]
[ 0.03188188 -0.05404577  0.05133814]
[ 0.11393201 -0.04311558 -0.00449728]
[-0.15269276 -0.0229425  -0.15681741]
[ 0.18917255  0.06146402  0.14313315]
[ 0.14861006 -0.02735638 -0.00157141]
[ 0.15926723  0.02374331 -0.01844522]
[ 0.00114156  0.11941426  0.00656178]
[ 0.02168006 -0.00010554 -0.05804738]
[-0.13109304  0.10679886 -0.08959612]
[ 0.02164081  0.00354528 -0.10400676]
[ 0.09181915  0.12019179  0.04871175]
[ 0.13005619  0.08479676  0.09922719]
[-0.04593258 -0.04594409  0.07491072]
[ 0.1498449  -0.01612978 -0.1000019 ]
[ 0.15805458  0.00457356 -0.01477991]
[-0.04629114 -0.12392591 -0.11602491]
[ 0.02963116 -0.00858171  0.01340498]
[-0.03362413  0.1771882   0.13248861]
[-0.14320637  0.05401722  0.04129983]
[-0.04036796  0.11423825 -0.06383421]
[ 0.09143026 -0.12247315  0.04130518]
[-0.06720193 -0.0398013  -0.08368592]
[-0.04917834  0.12869523 -0.10254721]
[-0.03721589  0.09572479  0.11700255]
[-0.00122512 -0.1353381   0.06093844]
[ 0.03401886 -0.13815475 -0.07499669]
[ 0.0060574  -0.04146248 -0.00434447]
[ 0.0991922   0.04903563  0.08166556]
[-0.05277184 -0.02677927  0.04301788]
[-0.01311731 -0.08649444 -0.0137284 ]
[ 0.12042833  0.08561975  0.11426733]
[ 0.01755104 -0.02198957 -0.10314645]
[-0.01602008  0.07163336  0.12762606]
[ 0.02852666 -0.10814928 -0.01433117]
[-0.02155633 -0.10113946  0.12921722]
[ 0.09271655 -0.07955895  0.05254038]
[ 0.13388549 -0.03907672 -0.02831871]
[ 0.14352949  0.03107079  0.0521433 ]
[ 0.01290753  0.01615242  0.1558757 ]
[-0.01770028  0.0008759  -0.0802498 ]
[ 0.06211145 -0.06382905  0.0509112 ]
[ 0.05877218 -0.11397681  0.09751102]
[-0.11504576 -0.14731713  0.00282561]
[ 0.12513666  0.08637605  0.12178245]
[ 0.00956845 -0.02115904 -0.0465317 ]
[-0.10700642 -0.05960663 -0.02251872]
[ 0.05832928 -0.05094414 -0.10263441]
[ 0.09119682 -0.06312259 -0.03997837]
[ 0.05546407 -0.00447173  0.1234821 ]
[ 0.03804979 -0.13121647 -0.03494365]
[ 0.11054532  0.01499541 -0.04245092]
[-0.07410166 -0.08649121  0.08339929]
[ 0.0715467  -0.09667597  0.09221011]
[ 0.08870348  0.06051004 -0.04387293]
[ 0.00875742 -0.00064959  0.11116209]
[-0.02920871  0.17094648  0.10657378]
[ 0.08911412  0.11151313  0.01353523]
[-0.0739224  -0.148684   -0.07400817]
[ 0.0243333   0.02127733 -0.00558628]
[ 0.04906869  0.11303603 -0.09904705]
[ 0.03022123 -0.13187504  0.04535832]
[-0.03175565  0.04554767 -0.14416288]
[-0.03381199 -0.09832666  0.10773586]
[ 0.05101962 -0.04453443 -0.12157021]
[-0.01423489  0.03173108  0.00026059]
[ 0.11090578  0.00025819 -0.09949421]
[-0.03347541  0.01550763 -0.0048391 ]
[-0.04223178 -0.10753062  0.09537506]
[ 0.01987263 -0.0417739  -0.08207008]
[ 0.05492189 -0.04769363 -0.10783224]
[-0.09771041  0.02720919 -0.02418473]
[-0.10434337 -0.07069355  0.05257374]
[-0.08736661 -0.12799604 -0.09244563]
[ 0.07709673  0.08962285 -0.00018434]
[-0.00266116  0.06376256  0.09995215]
[-0.00175888 -0.01789579  0.04064764]
[ 0.14027449  0.02171856 -0.08919804]
[ 0.16454306  0.05372687  0.12794586]
[ 0.03951773 -0.02412659  0.02641881]
[ 0.0273159  -0.08972894 -0.00391111]
[-0.07151289 -0.07785036  0.07968053]
[ 0.03943032 -0.0738307  -0.20009845]
[ 0.01590963 -0.12330987 -0.16117838]
[ 0.02726165  0.01113097  0.03669108]
[-0.00047917  0.10934593  0.10860332]
[-0.05345847  0.11212132 -0.07406084]
[ 0.08391608 -0.05054322  0.04441539]
[ 0.04269238 -0.09552228 -0.08233728]
[ 0.05711053 -0.10639387 -0.06466239]
[-0.05589267  0.01633531  0.06504605]
[ 0.04199273  0.10907406 -0.06604034]
[ 0.11973363 -0.12405711 -0.03115855]
[ 0.13633315 -0.01466553 -0.05858526]
[-0.07923136  0.10631138 -0.1453744 ]
[-0.02239807 -0.10206758 -0.07071672]
[-0.04069373  0.07988694  0.0688407 ]
[ 0.09043644 -0.13965277  0.03259381]
[ 0.14588927 -0.08712859  0.05593618]
[-0.01416806  0.01508735 -0.06683557]
[ 0.01189337 -0.02028682  0.04584777]
[ 0.10256327 -0.06762566  0.05369895]
[ 0.10487079 -0.09953189  0.07357319]
[-0.21622188  0.09375802  0.07681458]
[ 0.20713551  0.10935151  0.28802726]
[ 0.07720451 -0.00321595  0.14990386]
[ 0.18480545  0.22157727  0.24690187]
[-0.10602822 -0.09558778 -0.09821961]
[ 0.08170874  0.09570981  0.03935065]
[ 0.06024849  0.22864753  0.1411283 ]
[ 0.02762295  0.04404451  0.05560272]
[-0.11374519  0.00482911 -0.08038381]
[ 0.05240626  0.14396358  0.12636177]
[-0.01203893  0.1120533   0.12113104]
[-0.0884071   0.00930869 -0.03258305]
[-0.06197324 -0.06650657  0.03252628]
[ 0.18420523  0.06679259  0.09499776]
[-0.10304319  0.06210313 -0.14009704]
[ 0.02849575  0.05372341  0.10682678]
[-0.10918376 -0.11902075  0.02060606]
[-0.08571991 -0.10151961 -0.08708674]
[-0.00607034  0.17156361  0.11316264]
[ 0.02109296  0.05182789 -0.00322341]
[-0.09172162 -0.02337667 -0.06404136]
[ 0.14342664  0.17944129  0.08738846]
[-0.01692076  0.06941703  0.01387008]
[-0.19808486 -0.04204222 -0.09889624]
[-0.13543785 -0.06236516 -0.07407027]
[ 0.01820728 -0.19108506 -0.01414722]
[-0.1638381  -0.07561243  0.08509329]
[ 0.083045   -0.0077001  -0.09678708]
[ 0.13712671  0.02003638  0.13066304]
[-0.10783049 -0.16887106 -0.06713881]
[-0.062326    0.27310356  0.22056293]
[ 0.06965487  0.00654567 -0.16332194]
[ 0.07655062  0.02519419  0.2772111 ]
[-0.10952061  0.01077968  0.11345179]
[-0.13426504 -0.02114519 -0.01078775]
[-0.06095616 -0.17867455 -0.1820703 ]
[ 0.04303388 -0.04124225  0.07378752]
[-0.15369557 -0.06597883  0.00727807]
[-0.01196726  0.04069678  0.01946897]
[-0.00697645  0.06981236  0.08940464]
[-0.13854717 -0.13461788 -0.14692536]
[ 0.01638497 -0.02720701 -0.08563504]
[-0.00066862  0.07565276  0.00554036]
[-0.01383201 -0.02208634 -0.02403283]
[-0.18262981 -0.14587729 -0.11790971]
[ 0.05793342  0.18201247  0.08179234]
[ 0.05902821 -0.18250681 -0.10678662]
[-0.15877305  0.01556608 -0.09200316]
[ 0.01254865 -0.01362769 -0.19699773]
[ 0.03828113 -0.10635441  0.04838829]
[-0.01842695  0.17909846  0.15016627]
[-0.10446087 -0.02609562 -0.011041  ]
[-0.05403564 -0.12060089  0.03661394]
[-0.13209596 -0.16332206 -0.19831452]
[-0.08324194  0.13880883  0.02267864]
[ 0.03834482  0.01231006  0.2110008 ]
[-0.06471592  0.16919298  0.12870125]
[-0.06605688  0.14226864  0.00502071]
[ 0.10809843  0.06040492  0.06295871]
[-0.21709095 -0.05780689 -0.12989765]
[ 0.09015986 -0.04790013  0.07447866]
[ 0.10846899  0.15863471  0.15174194]
[-0.17683378 -0.0165913   0.06199826]
[-0.11547565  0.14547946  0.12237781]
[ 0.10807317 -0.0195667  -0.07659781]
[-0.06944481 -0.1040034  -0.07395967]
[ 0.19195932  0.26368842  0.11526822]
[-0.13294855 -0.19394489 -0.10102163]
[ 0.11603373  0.14742412  0.13973701]
[ 0.16582151  0.23188117  0.14511053]
[-0.02364953 -0.20002431 -0.19081634]
[ 0.0410887   0.07340168 -0.03797034]
[-0.12558438 -0.13684766 -0.06562866]
[-0.0492669  -0.0790057  -0.11455446]
[-0.00967336 -0.168689   -0.13445963]
[ 0.0810436  -0.02286638  0.09185086]
[ 0.04805359  0.06148526 -0.0239406 ]
[-0.06084082 -0.08057892  0.06972773]
[-0.01482973  0.14601251  0.17276838]
[-0.01106319 -0.12528794 -0.09023041]
[-0.12080056 -0.16925852 -0.13403027]
[ 0.09514881  0.1608302   0.1654164 ]
[-0.10032885 -0.15873207  0.15395337]
[ -1.69659451e-01  -1.38803735e-01  -1.59649790e-05]
[ 0.08779992  0.17506273 -0.0285282 ]
[ 0.07486138  0.09639605  0.16313814]
[-0.08813221 -0.16945262 -0.04685054]
[-0.052748   -0.04921051 -0.00223331]
[ 0.06323861  0.02386511  0.07052986]
[-0.17846927 -0.22700219 -0.10377612]
[ 0.02376339 -0.04833545  0.14696528]
[-0.08343369  0.05991479 -0.12145139]
[-0.16710009 -0.14842299 -0.22192152]
[-0.01618914  0.0438291  -0.02172932]
[ 0.18961953  0.3422977   0.32737568]
[ 0.15729816  0.1947169  -0.03605121]
[-0.045094   -0.13203381 -0.21268655]
[-0.10903772 -0.03585676 -0.04888249]
[-0.01266583 -0.08937387 -0.0017766 ]
[ 0.03596593 -0.18886793 -0.08460946]
[ 0.02338395 -0.10083462 -0.11207838]
[-0.00682304  0.03699755 -0.19487587]
[-0.01194451 -0.02364698  0.08189307]
[-0.02437185 -0.07496573  0.12826324]
[-0.08579943  0.04121388 -0.0399016 ]
[ 0.02537686 -0.0067093   0.05787837]
[-0.04265669 -0.05857829  0.020081  ]
[ 0.03073905  0.04363785  0.11011962]
[-0.06833348 -0.05231107  0.03083398]
[-0.09299482  0.09431412  0.03995094]
[-0.08258241  0.01110337  0.04216145]
[-0.03060735  0.07940881  0.04536591]
[-0.08079545  0.03355855  0.14789572]
[ 0.04807467  0.11260639 -0.03197573]
[-0.03774066  0.01161988  0.10443547]
[-0.11917499  0.01319112 -0.05784735]
[ 0.06805044  0.01739515 -0.10014766]
[-0.05999448 -0.04801643 -0.04497727]
[ 0.06077357  0.08084979  0.1208451 ]
[-0.08446934 -0.09302361  0.10587505]
[-0.01707875 -0.17900527 -0.08278659]
[-0.11914525 -0.06912878 -0.06301961]
[-0.15179136 -0.03677917  0.10279342]
[ 0.1623023   0.11900493  0.01682859]
[ 0.10999607 -0.12098143  0.10188176]
[-0.0874263  -0.04896776 -0.0553374 ]
[-0.10148697 -0.15377879 -0.10934627]
[-0.04786291 -0.09484121 -0.03050249]
[ 0.08615828  0.09209023 -0.04395059]
[-0.1431891   0.08544209  0.09784807]
[-0.00080043 -0.09663588  0.06449108]
[-0.00491592 -0.03784452 -0.01929149]
[-0.12119067  0.0563383   0.03170951]
[-0.08558632  0.00259554  0.05930454]
[ 0.03079744 -0.09658962  0.12700805]
[-0.10555848 -0.01988953  0.0641299 ]
[-0.0720678   0.04972446  0.07332584]
[-0.10093966 -0.07720058 -0.11321996]
[-0.10546388  0.08612648  0.11248757]
[-0.12693188 -0.08356149 -0.06723548]
[ 0.11351267  0.0790481  -0.00338534]
[-0.00579406  0.07407692  0.11787274]
[-0.04975077 -0.01874219 -0.04147983]
[ 0.09445312 -0.00144654 -0.07458672]
[ 0.08415693  0.02889895  0.02265652]
[-0.03949897 -0.10265499 -0.04890826]
[ 0.00666456 -0.13460565 -0.18429969]
[-0.06360388  0.11484287  0.12741056]
[-0.11814116  0.05787685  0.10775846]
[-0.13407136  0.07424133  0.04668696]
[ 0.10679474  0.02763542 -0.16453592]
[-0.02542808 -0.01409453 -0.23595037]
[-0.10275191  0.00481486 -0.09583917]
[-0.10549911  0.03945475 -0.06189974]
[-0.13146874 -0.05130121  0.13655478]
[ 0.00696227  0.11205546  0.08926352]
[ 0.07246391  0.14498387  0.01624171]
[-0.05360376  0.01539883  0.06609115]
[ 0.10710075 -0.1178523  -0.03929432]
[-0.0598185   0.10496254 -0.04198318]
[-0.01468656  0.13919345  0.09324411]
[-0.11694914 -0.02388378  0.12730722]
[-0.02365628 -0.16987523  0.06858382]
[-0.01556355  0.06897717  0.03108136]
[ 0.07613203  0.05368065 -0.03252275]
[-0.03514626 -0.06763262  0.11764526]
[ 0.00556608 -0.00368468  0.05397942]
[ 0.06524473 -0.10177365 -0.04617755]
[-0.03225333 -0.02162592  0.05460807]
[ 0.09187691 -0.16643545 -0.16297978]
[ 0.08873139 -0.05994033  0.13261704]
[ 0.11947054 -0.0067426  -0.11197241]
[ 0.00634088  0.00272469 -0.00482029]
[-0.00427753  0.11268295 -0.12939447]
[-0.12130375 -0.00042778  0.00436875]
[ 0.09848006 -0.01708584  0.10391347]
[ 0.01803393  0.09032288  0.00610626]
[ 0.02132336 -0.08166634 -0.07988151]
[-0.0992799   0.09130431 -0.0123841 ]
[-0.07911876  0.13657652  0.03121554]
[ 0.01794424  0.08412695 -0.0516901 ]
[ 0.01676449  0.1020802  -0.08525589]
[ 0.02390604  0.01381907  0.05165105]
[-0.04776785  0.09827055  0.06181271]
[-0.03153025 -0.03966665 -0.07349033]
[-0.13185315  0.14749278  0.02060549]
[-0.06867251  0.02785313 -0.07080106]
[ 0.07938748  0.02544503  0.02823534]
[-0.09019452 -0.03109149  0.01853354]
[ 0.12966631 -0.00537527 -0.17589819]
[-0.15080437 -0.17567609 -0.10497124]
[-0.19981766 -0.20343961  0.01647559]
[-0.08753384  0.00603995 -0.12122978]
[ 0.0757107  -0.17788185 -0.07242917]
[-0.08179069 -0.23482686 -0.14677149]
[-0.00365359 -0.05156756 -0.16678168]
[ 0.00433797 -0.08852761 -0.06626988]
[ 0.07944152  0.03444525 -0.11011759]
[-0.0263859  -0.13544774 -0.06084482]
[-0.04376727 -0.0604906  -0.02169648]
[-0.1516276  -0.09775456  0.06725582]
[-0.13087997  0.04850148  0.04931716]
[-0.13547143 -0.1547226  -0.12863824]
[-0.04726165 -0.06434933 -0.10355857]
[ 0.05943163 -0.0588386   0.16518308]
[ 0.08209673  0.17571637  0.10550791]
[ 0.14347616  0.02581757  0.02460578]
[-0.02089931 -0.03825957  0.0957462 ]
[  7.59238610e-05   1.12558967e-02  -5.34421951e-03]
[-0.13729225  0.03667414  0.06002737]
[ 0.06198025  0.1061298   0.13186541]
[ 0.00409206  0.09656465  0.08241641]
[ 0.06987044 -0.05423906  0.04744716]
[ 0.04648079 -0.06257956 -0.1152355 ]
[ 0.04801051 -0.09967915 -0.07959089]
[ 0.0636156   0.06494977  0.01677163]
[ 0.0717277  -0.15785034  0.06987833]
[-0.11769941 -0.17932789  0.09008352]
[ 0.07192522 -0.12947038 -0.09108215]
[-0.04378253  0.06929539  0.03534702]
[ 0.05025395  0.13640572  0.00192942]
[ 0.16297925  0.05126813 -0.05092816]
[-0.10005496 -0.15335324  0.04403472]
[-0.06302235 -0.12313238 -0.11045189]
[ 0.00197784  0.03552423 -0.02512851]
[-0.11557711  0.02813912  0.10126265]
[-0.09247763  0.05350661  0.04920126]
[-0.13829106 -0.06480586  0.02029938]
[ 0.04935667  0.06695081 -0.10030842]
[ 0.03815642 -0.03995337 -0.09501402]
[-0.1136153   0.01389523 -0.01357417]
[-0.01907402  0.0676102  -0.06959375]
[ 0.0336495   0.09397538 -0.03220584]
[-0.0337007   0.11613107  0.09231424]
[-0.10518787  0.08692849  0.09389444]
[-0.08373041  0.07060529  0.04111857]
[-0.07375442  0.12205248  0.09644609]
[ 0.04868845 -0.09028929  0.08903023]
[ 0.0794463   0.13608925 -0.1159503 ]
[-0.07528058  0.03617672 -0.13534793]
[-0.08808827 -0.02410334  0.08960803]
[-0.03928757 -0.01247608 -0.0611562 ]
[-0.04772614  0.06687102 -0.12403138]
[-0.00639205 -0.06610622  0.10449501]
[-0.06925927  0.05793359  0.09277455]
[ 0.06357643 -0.040731    0.12306999]
[ 0.00994765 -0.12398523 -0.16660924]
[-0.05842342 -0.08284358 -0.25847128]
[-0.17057543 -0.09644173 -0.18312298]
[ 0.00783253  0.05749271  0.07842882]
[-0.13848364 -0.17207888  0.02388855]
[-0.00657817 -0.138319    0.02083525]
[-0.10454833  0.08133939 -0.06274971]
[ 0.04102332 -0.03371553  0.0641217 ]
[-0.12422241  0.02250494  0.08243775]
[ 0.09327088 -0.01752418  0.03561004]
[-0.05127103 -0.14727822 -0.13099383]
[-0.15059195 -0.08921331 -0.01040404]
[-0.07872181  0.03049123 -0.03762721]
[-0.18038005 -0.0990428   0.04963582]
[-0.057182   -0.08783537 -0.04108525]
[ 0.03480517  0.02393977 -0.09378017]
[-0.0251075   0.09616615  0.08807015]
[-0.04234608 -0.10211669  0.01012609]
[ 0.04889755  0.05915868  0.00626406]
[-0.14302744  0.01098397 -0.08322578]
[-0.05050373  0.01002905 -0.09793922]
[-0.11270195 -0.05706836 -0.04742598]
[-0.11646488 -0.00074108 -0.14413349]
[-0.05227954 -0.10828688 -0.1262785 ]
[ 0.09857809  0.08828971 -0.06761873]
[-0.13205157  0.13245665 -0.04568491]
[ 0.05685906  0.01370762 -0.11177637]
[ 0.0339826  -0.1319903   0.00693077]
[-0.0693309  -0.01087458  0.02857458]
[-0.08541564 -0.1578241   0.02646225]
[-0.03037255  0.09764245 -0.01066589]
[-0.17140202  0.09742202  0.06381646]
[-0.13991077 -0.00622605 -0.1340306 ]
[ 0.03586384  0.02743597 -0.0210766 ]
[-0.21214832 -0.0665534   0.01055074]
[ 0.02950198  0.03741387 -0.05556673]
[-0.08809593  0.00989903  0.02863647]
[-0.00043175 -0.02513834  0.11376046]
[ 0.01811961 -0.14101119  0.09060764]
[-0.01448953 -0.02076956 -0.19643901]
[-0.17152037 -0.05086999  0.04084171]
[ 0.03369384 -0.06376928 -0.03177172]
[ 0.03602612 -0.0615653   0.09389179]
[-0.00585401 -0.01003724  0.03360351]
[ 0.1404424  -0.05242498 -0.07036171]
[ 0.09553085 -0.01526993  0.04220301]
[-0.04227854  0.15735051 -0.01234407]
[ 0.00327337  0.05021469  0.01383394]
[-0.01929326  0.08353426  0.03696303]
[ 0.0242233  -0.01464897 -0.06292222]
[-0.03894173 -0.05175338 -0.05145203]
[ 0.07951673  0.08041039  0.09054596]
[ 0.12628911 -0.0362496   0.00495122]
[ 0.09659442 -0.01254378 -0.03885275]
[-0.19887222 -0.23881522 -0.1825801 ]
[-0.11087253 -0.07973858 -0.02525357]
[-0.11603451 -0.09422664 -0.15942003]
[ 0.09760789 -0.09216514  0.13732237]
[-0.07181193  0.05210101 -0.03300038]
[-0.02591017  0.08396483  0.09892532]
[-0.14425503 -0.04913301  0.03852832]
[-0.04886948  0.06822904  0.11376037]
[ 0.12596783 -0.04962616 -0.01529944]
[ 0.04750253  0.06595321  0.04428537]
[-0.08751115  0.111691    0.10733075]
[ 0.03686791 -0.05285433  0.04847431]
[ 0.00203201 -0.17643631  0.04843162]
[-0.06388669 -0.15740816 -0.15293132]
[-0.07087825  0.05652674 -0.08002449]
[-0.00786971 -0.09847177 -0.0578493 ]
[-0.17084855  0.03752451 -0.08747463]
[-0.10619716 -0.14857368 -0.09231334]
[ 0.02345872  0.1705811   0.15329997]
[ 0.10713394  0.10351821  0.03098775]
[-0.03969198  0.03217509 -0.0934255 ]
[-0.04085806  0.03685465 -0.01358656]
[ 0.00638565 -0.0148025   0.03861579]
[-0.1062737  -0.00980738 -0.06692047]
[ 0.00514616 -0.02888387 -0.01608033]
[ 0.10822392 -0.1330477  -0.07707107]
[-0.11877553 -0.11691841 -0.13080415]
[ 0.05740697  0.07452139  0.10281309]
[ 0.07158054  0.05771336 -0.13217007]
[ 0.0840113  -0.06468237 -0.08369906]
[ 0.08518431  0.09868648  0.09849471]
[-0.02175777  0.10227606  0.08562604]
[ 0.01676678 -0.00304736 -0.08564864]
[ 0.06065078  0.03250347 -0.00191603]
[ 0.1069027   0.07269341 -0.12851581]
[-0.03045592 -0.06392235 -0.12710865]
[-0.13074332  0.05652032  0.02913888]
[ 0.04618207 -0.13796176 -0.04258021]
[ 0.06066831 -0.00507627 -0.05305989]
[ 0.02264109  0.00747116  0.01482702]
[-0.09263597 -0.01553     0.00936289]
[-0.00461482 -0.06740457  0.09599452]
[-0.06400532 -0.02445096 -0.00489836]
[ 0.01765976  0.08972579  0.16516545]
[-0.01329606  0.03589255 -0.00995006]
[ 0.03665668  0.07585972 -0.11406433]
[ 0.01123561  0.10885792 -0.0511151 ]
[-0.0873858   0.07263351 -0.02133139]
[ 0.06369489  0.05930436 -0.05748247]
[-0.07277513  0.04035535 -0.05000453]
[-0.13568214  0.09577228  0.04724345]
[ 0.02117351 -0.0786605   0.08301719]
[-0.09772765 -0.11126775  0.00417379]
[ 0.07640333 -0.12345267  0.00643795]
[ 0.05569215  0.06392866 -0.02768453]
[ 0.08324608 -0.03802235  0.01549827]
[-0.085036   -0.13385764 -0.05941941]
[-0.05210353 -0.07137257  0.09753741]
[-0.01409098  0.08891699 -0.14717582]
[ 0.00690555 -0.11569072 -0.00291672]
[-0.09719472 -0.06911823 -0.02137637]
[-0.06971063  0.06149017 -0.06959085]
[ 0.0686477  -0.01290581 -0.09651642]
[ 0.04687265  0.1435343   0.10667764]
[-0.11671947  0.01838042 -0.16160835]
[-0.02561172  0.00115056 -0.09454519]
[ 0.00298369 -0.05450811  0.05758173]
[ 0.12971097  0.04640888 -0.05130739]
[-0.02204613 -0.0087521   0.09595081]
[-0.03309439 -0.00204338 -0.03842645]
[-0.02564965 -0.04329412  0.04603463]
[-0.06193773  0.02602175 -0.04055016]
[ 0.05290831 -0.13013238 -0.09511501]
[ 0.07981507  0.04968175  0.15470859]
[ 0.03908309  0.01967431 -0.03961898]
[-0.03235459 -0.0896088   0.0784822 ]
[ 0.02307086 -0.07970022 -0.08105866]
[ 0.04074414  0.05151916 -0.11609582]
[ 0.0649133   0.06704079 -0.06620392]
[-0.12525183 -0.05981123 -0.09658951]
[-0.10740397 -0.05008627 -0.11426378]
[-0.14664526 -0.12479527 -0.0542849 ]
[ 0.14265054 -0.05118834  0.1497682 ]
[ 0.10178726  0.04584786 -0.05514336]
[ 0.00507629  0.02218687 -0.11904433]
[ 0.12581573  0.10502426  0.05683803]
[ 0.06451296 -0.08213207  0.08541358]
[-0.07892399 -0.12584527  0.04112177]
[ 0.04284002  0.06902247 -0.00283195]
[ 0.12805238  0.0207861   0.14652887]
[ 0.09843432 -0.12458818 -0.05010388]
[ 0.03258264  0.12927613  0.07107618]
[ 0.229454   -0.05802011  0.01571334]
[-0.05289925  0.05717451 -0.02971479]
[-0.11396661 -0.04598547 -0.09429019]
[ 0.15637381  0.18619397 -0.01148141]
[-0.0116315  -0.14404263  0.01244279]
[-0.0758739  -0.03444076 -0.15583643]
[ 0.01236937 -0.07677892 -0.14174914]
[-0.04316676  0.01479684 -0.12153974]
[-0.08987582  0.07740369  0.13660924]
[ 0.00382375 -0.06592248  0.02687582]
[-0.06885577 -0.13853765 -0.15402173]
[ 0.12253095 -0.07222276 -0.01426174]
[ 0.05559392  0.06468936 -0.08475123]
[ 0.06030471 -0.14147128 -0.0055244 ]
[-0.02100737 -0.05355698  0.09957572]
[-0.01736163  0.04921776  0.03814452]
[ 0.06907286 -0.10489339 -0.06403302]
[-0.01919848  0.06116326  0.1020257 ]
[-0.06507101  0.09712027  0.05913913]
[ 0.05491682 -0.06097671 -0.02658035]
[-0.14756045 -0.07905316 -0.1827707 ]
[-0.12585162 -0.14858542 -0.02723009]
[ 0.05383625 -0.10773895 -0.12496521]
[ 0.14403832  0.06888957  0.03410561]
[ 0.19167265  0.06043455  0.16176732]
[-0.0994553  -0.10076966 -0.08563557]
[-0.03075061  0.04500102 -0.03737413]
[ 0.12456105  0.07779101  0.00524694]
[ -3.57825775e-05  -5.47260344e-02  -2.55291946e-02]
[ 0.01674242  0.06949975  0.13393234]
[ 0.11633268 -0.0343056   0.14733209]
[ 0.06722656  0.01911998  0.07039772]
[-0.0770722   0.11484448  0.12461821]
[ 0.0182036  -0.02469402  0.1301029 ]
[-0.00532478 -0.13417165 -0.12797104]
[-0.06571285  0.03496432 -0.05633615]
[-0.04877169  0.09816498 -0.08313043]
[-0.1108252   0.01604673  0.10607126]
[-0.08272151 -0.03941059 -0.06742454]
[-0.03466918  0.12719107 -0.10723042]
[ 0.10638335  0.02110018 -0.05213984]
[ 0.20931803  0.2143157   0.16857857]
[ 0.04659571  0.17836951  0.08692941]
[-0.07536326 -0.01747664 -0.07755618]
[ 0.11602719  0.11664169  0.12516105]
[ 0.12145512  0.1029003   0.09555173]
[ 0.02296106  0.00924058 -0.0775558 ]
[ 0.04953526  0.12970048 -0.06636934]
[-0.04531485  0.04185453 -0.01118266]
[-0.02639593  0.05503321 -0.07977511]
[-0.10816768  0.032388    0.04941753]
[-0.03627696 -0.03190474  0.0745839 ]
[-0.0103897  -0.04063835 -0.03368694]
[-0.05901785  0.10252857  0.04721906]
[ 0.08995108  0.10753548  0.02582429]
[-0.12487134 -0.14604598 -0.07301719]
[ 0.1012946   0.02010152 -0.06850403]
[ 0.08507121  0.07009683 -0.05592763]
[ 0.10383546 -0.08870912 -0.05080939]
[ 0.02275815  0.14994296  0.14732932]
[ 0.17402829  0.17428376 -0.00261064]
[ 0.00995586 -0.1007505  -0.10317473]
[ 0.0454345  -0.01237837  0.00888919]
[ 0.09992685  0.07211536  0.0588236 ]
[-0.08601567 -0.06825003  0.01047928]
[ 0.05681069 -0.04836361 -0.14109413]
[ 0.06107999 -0.05436711 -0.11023311]
[ 0.0249318   0.1076935   0.00973669]
[-0.12692323  0.11049014  0.01109804]
[-0.06090583 -0.13141708  0.08439125]
[-0.00816495  0.04806326 -0.06517863]
[-0.06901671  0.03006778  0.11608616]
[ 0.00361359 -0.00564329 -0.07242746]
[-0.09253228 -0.08541861 -0.07592381]
[ 0.01202604  0.07958175 -0.03190105]
[-0.12264742 -0.14226539  0.08262234]
[-0.04260486  0.04924065 -0.11996876]
[-0.0558952  -0.01105095 -0.09158613]
[-0.07614312  0.09379072 -0.06823145]
[-0.02627093  0.04222395 -0.06633381]
[-0.14234996  0.05903814 -0.11100774]
[-0.03351682  0.08892118  0.00634193]
[ 0.06178576  0.03158741  0.07565556]
[ 0.06270795 -0.03667963  0.10283703]
[ 0.12307479  0.1027046  -0.01017959]
[ 0.05561821 -0.07581727  0.00301086]
[-0.0797421  -0.03051588 -0.02862524]
[ 0.09100801 -0.10457773 -0.02291185]
[ 0.08423277  0.11221653  0.16013297]
[ 0.12306065  0.13720702  0.08225612]
[ 0.06484469  0.03918197 -0.08734116]
[-0.04178168 -0.0624804  -0.18749528]
[ 0.2367081   0.15996593  0.13338843]
[ 0.15525679  0.01501346  0.25549906]
[-0.02733579 -0.15126181 -0.09434161]
[-0.01357699  0.08714762 -0.08069463]
[ 0.02606372  0.15856603  0.05028588]
[ 0.06339753  0.01019209  0.00938103]
[ 0.02956666  0.00205997 -0.00190506]
[ 0.04711912  0.06709886  0.12905842]
[ 0.02730583  0.08612692  0.02137897]
[-0.00541803 -0.05308347  0.05186768]
[ 0.06319907  0.0855839   0.03467604]
[-0.08667812 -0.10263325 -0.01160885]
[ 0.14999656 -0.09154931 -0.09272528]
[ 0.00170296  0.11208297  0.1104247 ]
[ 0.02835079  0.03824276 -0.00820699]
[ 0.05138435 -0.12303215  0.0367697 ]
[ -4.77826688e-07   2.50633005e-02  -4.09315638e-02]
[-0.01067633 -0.08867858 -0.03494396]
[-0.01589878 -0.08497474 -0.15742858]
[-0.04605415  0.01278039 -0.10328832]
[ -1.62619981e-04   8.84445235e-02  -4.83923141e-05]
[ 0.19491205 -0.01545771  0.11129203]
[ 0.07096849 -0.08548969  0.14613833]
[-0.07215982  0.10043369  0.11016057]
[-0.0749347   0.08306541 -0.02924284]
[-0.16297089  0.07455785 -0.05010741]
[-0.1276076  -0.16981569 -0.23508324]
[ 0.15116337  0.09027878  0.11121117]
[ 0.06871358  0.1195005   0.11572274]
[-0.13033041 -0.11443055 -0.02427045]
[ 0.09684063  0.05097283 -0.16006808]
[-0.01756256  0.08058482  0.03474908]
[ 0.00544917  0.09591926 -0.13300622]
[-0.01404812  0.06669081  0.09577307]
[ 0.1574284   0.18241991  0.19867729]
[ 0.06528299 -0.09869353 -0.10454319]
[ 0.04098499 -0.02409369  0.03947809]
[ 0.15682146 -0.04070948  0.07507689]
[-0.04762591  0.0099344   0.02418824]
[-0.10344189 -0.0733762  -0.12628172]
[ 0.02884768  0.11576845 -0.04759852]
[-0.07684393  0.01068825 -0.07738122]
[ 0.06716038  0.07888333 -0.08411876]
[-0.09057263  0.13246371  0.1302013 ]
[ 0.0617898   0.01597294  0.12047673]
[ 0.12912403  0.244783    0.15564683]
[ 0.07171687  0.08905217  0.16912404]
[ 0.09884961 -0.0260378  -0.11366855]
[ 0.12014277 -0.04406501 -0.13948458]
[ 0.09194385  0.09675986 -0.01280267]
[ 0.05564882  0.03089781 -0.082628  ]
[-0.06726842 -0.07164687  0.05977082]
[-0.04623707  0.03669481  0.10532879]
[ 0.06854347 -0.06104892 -0.02987714]
[-0.11650993  0.06277348 -0.03736859]
[-0.06751874  0.01000284  0.02692548]
[-0.1037062  -0.03138977  0.00134872]
[-0.14990859 -0.13104862  0.02855624]
[ 0.14333758  0.06356935 -0.06240056]
[-0.04984091  0.12054696 -0.02313125]
[ 0.12055845  0.15169257  0.02993386]
[-0.07707769 -0.07339301  0.10173527]
[-0.01333552 -0.15803011 -0.02877766]
[ 0.12462991  0.14955424  0.06328745]
[ 0.1944472   0.04184842  0.17032342]
[ 0.03617323 -0.1526531   0.02612609]
[ 0.04245539  0.1020699   0.06436064]
[ 0.09052868 -0.01643519  0.16540956]
[-0.10511075 -0.06566342  0.01761934]
[-0.05842735 -0.01975267 -0.15736473]
[ 0.02841978 -0.12275606  0.08838632]
[-0.09086233  0.03003843 -0.01790399]
[-0.09204371 -0.06257624 -0.08035246]
[-0.16074595 -0.09678511 -0.09818897]
[ 0.00260071 -0.14288062 -0.1301312 ]
[ 0.01163112  0.03988011 -0.09922703]
[-0.05289305  0.06500556 -0.11928122]
[-0.02285265 -0.04808082  0.01016165]
[-0.02909963 -0.06124023 -0.18952337]
[-0.17958091 -0.21339224  0.00904789]
[-0.1087593   0.0543762  -0.00370867]
[-0.11480386  0.04257996  0.02705675]
[ 0.07518969  0.11467082 -0.0232293 ]
[-0.06973664 -0.0887434   0.07632837]
[ 0.03215337  0.02919306 -0.05887995]
[-0.03960165 -0.00397006 -0.00473773]
[-0.11121599 -0.03419932 -0.13790524]
[-0.06414609  0.04381578 -0.1071338 ]
[-0.06708433  0.08513851  0.0911047 ]
[ 0.00647994  0.24383581  0.16386138]
[-0.05295824  0.18393773  0.19233897]
[ 0.08980719 -0.07326847  0.01963486]
[-0.20731914 -0.25701383  0.0140473 ]
[-0.06090591 -0.09421009 -0.14951719]
[-0.01968915 -0.15586008 -0.13112895]
[-0.15349647  0.01000891 -0.13278314]
[-0.15746957 -0.05765323  0.08896039]
[-0.18929273  0.03234808  0.1104045 ]
[-0.07643139 -0.0383133  -0.08040578]
[-0.11641074  0.14723133  0.13623147]
[ 0.01703878  0.10778087  0.08298696]
[-0.10674156  0.14218101 -0.04505575]
[-0.09856188 -0.10505295  0.04666828]
[ 0.03654236 -0.15875068 -0.05453892]
[ 0.00918347  0.15530345 -0.09152101]
[ 0.07386178  0.04028844  0.11530104]
[-0.00454523  0.07058766  0.16619536]
[-0.04665462  0.15399532  0.00978602]
[ 0.0673831   0.08705846 -0.05343899]
[-0.00834287  0.1107829   0.03066699]
[ 0.00418446  0.0435002  -0.0881447 ]
[ 0.04902898 -0.02266008 -0.10160778]
[-0.12563069  0.06936929 -0.00224213]
[-0.11841419  0.00388359 -0.14314002]
[-0.05146894 -0.00225202 -0.01256238]
[-0.02540338  0.04277657 -0.01675897]
[-0.09521012  0.22094551  0.18232258]
[-0.02764682  0.18376946  0.22790548]
[-0.1771479  -0.03047326  0.03728847]
[-0.02551927 -0.05128767 -0.03086364]
[ 0.10235263 -0.0282899  -0.0571557 ]
[ 0.15065797  0.15463294  0.06450193]
[-0.10379498  0.07348391 -0.02970432]
[-0.05199049 -0.01083017 -0.03002664]
[-0.18489766 -0.20774135  0.13069691]
[-0.08822494 -0.00227076 -0.00089949]
[ 0.00415751 -0.06896552 -0.08290169]
[-0.11958411  0.08533961  0.06458905]
[ 0.07182914 -0.07986821 -0.07354433]
[ 0.13787408  0.10048288  0.13568862]
[-0.12459482  0.03934989  0.0636019 ]
[ 0.11478999  0.08599794  0.06042828]
[ 0.11428961  0.12998182 -0.12865901]
[-0.12084074 -0.11860849  0.0513902 ]
[ 0.05059301 -0.10840943  0.01732089]
[-0.04013859  0.11833732 -0.12701386]
[ 0.10004728  0.1233174  -0.01654378]
[-0.02075427 -0.07883131 -0.05734982]
[-0.04935631 -0.00571493  0.08206195]
[-0.09126846  0.01965311  0.02604694]
[-0.12398863  0.04160945  0.08274735]
[ 0.07101193 -0.00065513  0.13473864]
[-0.11615496 -0.08504251 -0.12883851]
[ 0.09317124  0.12043738  0.1342966 ]
[ 0.06560143  0.11415916  0.06875639]
[-0.04648562 -0.12047657 -0.03112076]
[-0.0692951  -0.20719543 -0.05211568]
[-0.08742774 -0.11170626  0.00356898]
[ 0.02051827 -0.06806538  0.02040458]
[ 0.0438626   0.13137347 -0.0522501 ]
[ 0.08202132 -0.04211693  0.11578808]
[-0.11970697  0.00343897  0.0493349 ]
[-0.00183094  0.09178278 -0.09504448]
[ 0.08060163  0.02479097 -0.10846376]
[ 0.0941454  -0.0233914  -0.12228267]
[-0.11557171 -0.05961914 -0.00273574]
[-0.00907375 -0.05624364 -0.04931193]
[-0.14016296 -0.11251198  0.02769432]
[ 0.02875569  0.00110305 -0.00239838]
[-0.13062543 -0.00038836  0.11274788]
[ 0.03349262  0.01204055  0.11046159]
[ 0.08955283  0.01856412  0.00393237]
[-0.01103977  0.17376803 -0.06834533]
[-0.08433829  0.0342329   0.01056063]
[ 0.06670321  0.14669721 -0.04156565]
[-0.21803944  0.06030459  0.1713675 ]
[-0.20546809 -0.12647483 -0.05610827]
[-0.18677002  0.00157274  0.0457188 ]
[-0.15133628 -0.02412217 -0.14941421]
[-0.10990649 -0.20675255 -0.1950758 ]
[-0.05104752  0.04064706  0.01893984]
[ 0.09755336 -0.0233862  -0.08691264]
[  3.93271330e-06   1.15067512e-01  -1.00486301e-01]
[-0.15414107 -0.16802281 -0.03422338]
[ 0.04274637 -0.02489656 -0.20884764]
[-0.01879934 -0.11731501 -0.0303305 ]
[ 0.05552834 -0.10257423 -0.05393885]
[-0.074778    0.03764499  0.10330467]
[-0.04412819 -0.11691383 -0.08103082]
[ 0.08576361 -0.04307493 -0.03370854]
[ 0.01906586 -0.05743829  0.02480367]
[ 0.08343192 -0.05463578  0.0060104 ]
[-0.04741096 -0.08317064 -0.11862366]
[-0.05292281 -0.0844344  -0.08646815]
[ 0.02078494 -0.00613349  0.06041139]
[-0.20577396 -0.15412471 -0.09630295]
[ 0.01918581 -0.1157952  -0.0730647 ]
[-0.10007239 -0.04256324  0.00226762]
[-0.05203106 -0.05549548 -0.05882466]
[ 0.02783144  0.03054064  0.07074451]
[-0.03313161 -0.00517505  0.06015084]
[-0.05466067  0.07183044  0.23310798]
[-0.03226857 -0.0115822   0.15751413]
[ 0.21392819 -0.03875783  0.08948092]
[-0.11775155  0.06907102  0.01721031]
[ 0.08053529  0.19819741 -0.00508229]
[ 0.06247491  0.07280642 -0.11722288]
[-0.04981482 -0.00186558 -0.07440703]
[ 0.04246328  0.00466582  0.2213942 ]
[-0.02823445  0.0708324   0.12689006]
[ 0.00559622 -0.06204983 -0.14269359]
[-0.08890485 -0.10818169  0.01929502]
[ 0.12414224  0.04660448  0.05175898]
[-0.06135195  0.10379127  0.06828194]
[-0.10199358 -0.04377507  0.05112813]
[ 0.06352685  0.12980697 -0.15314646]
[-0.13293935 -0.16642347 -0.08748323]
[-0.15178025  0.02941483 -0.01162056]
[-0.06848099 -0.0163713   0.00216386]
[-0.14256421  0.03922114 -0.0448726 ]
[-0.14572677 -0.05400112 -0.00663838]
[ 0.10280129  0.16664095 -0.05377829]
[-0.14389426 -0.00527711 -0.01194613]
[-0.16915523 -0.0727886  -0.06257524]
[-0.14754888 -0.1694663  -0.01276792]
[-0.04854407 -0.00774479 -0.05400402]
[-0.01877439 -0.04894909 -0.08872201]
[-0.0680736   0.00599815 -0.11375123]
[-0.02293943  0.01794009  0.28502619]
[ 0.14803772  0.2372691   0.05848823]
[ 0.09166303 -0.07508554  0.00478811]
[-0.18596989 -0.05076909  0.02128345]
[-0.17244639  0.03493829  0.13195223]
[-0.05042335  0.01908182 -0.0445153 ]
[-0.13530776 -0.07048982  0.0939321 ]
[ 0.07216769  0.01606515  0.05037501]
[ 0.11366207 -0.10097561 -0.03277996]
[-0.18011954 -0.04281331  0.12108955]
[ 0.05236149 -0.0463788   0.16318497]
[ 0.0958809   0.01858696 -0.0407192 ]
[ 0.00328458 -0.11890281  0.01684849]
[-0.07469331 -0.00585657 -0.00508975]
[ 0.06263751  0.09236918  0.01055071]
[ 0.06029372 -0.07117126  0.05010214]
[ 0.17253202 -0.06548771  0.03329626]
[ 0.03971246 -0.04367242 -0.08176459]
[ 0.05482144 -0.01804244 -0.01391005]
[-0.13159454 -0.18849492 -0.13771254]
[ 0.04636563 -0.15488866 -0.00280908]
[-0.15560387 -0.00938912 -0.052835  ]
[-0.07838591 -0.06708627 -0.08049184]
[-0.07414624  0.1247509   0.03194052]
[ 0.0743914   0.1701691   0.24562973]
[ 0.16457875  0.07402782 -0.02116794]
[-0.08961163  0.09636331  0.24239449]
[-0.08389413 -0.18477093 -0.1632563 ]
[-0.20026486 -0.11154778  0.14077051]
[-0.00627284  0.10766834  0.08629101]
[-0.00641033  0.03766653  0.00825014]
[-0.0038885   0.01904081 -0.00662691]
[ 0.0202146  -0.03953243  0.01000317]
[-0.2114571   0.01574583  0.06188685]
[-0.06223014  0.05976646  0.0863543 ]
[ 0.1067792  -0.04412411 -0.02869635]
[-0.01633208  0.12438612  0.01666329]
[-0.04043594  0.01564664  0.11466665]
[ 0.1129365  -0.06271935 -0.05365889]
[-0.00303695 -0.04293459  0.06384527]
[ 0.03472126  0.07222459 -0.11499681]
[ 0.06175094  0.02074187 -0.03045641]
[-0.0157407   0.0115468  -0.09849078]
[-0.01065998 -0.0977957   0.03836292]
[-0.07192894 -0.16448757  0.07255096]
[ 0.14161234  0.11188009 -0.02973758]
[ 0.13444555  0.03268152  0.01436269]
[ 0.0674824   0.04818511 -0.13429759]
[-0.0322931  -0.00878902  0.13194156]
[ 0.1201163   0.0296868  -0.01015281]
[ 0.03201424 -0.02606943  0.06423137]
[ 0.12519129  0.25768623  0.0163411 ]
[ 0.06970803  0.07675344  0.10730415]
[ 0.09570107 -0.10995226  0.13376327]
[-0.12759686 -0.14669138 -0.15461203]
[-0.23157963 -0.05803514  0.11022353]
[-0.08485322  0.13827556 -0.07039721]
[-0.02445704 -0.20240149 -0.03484219]
[-0.01504042 -0.03047051 -0.06337298]
[-0.05481864  0.16010167  0.04154198]
[-0.02495606 -0.01634642  0.04484691]
[ 0.05889785  0.12780865  0.07727071]
[ 0.05584699 -0.06280989 -0.06525104]
[-0.01441024 -0.01634656 -0.02527948]
[ 0.04980445 -0.01836122  0.1096644 ]
[-0.1888496  -0.09787091  0.13028906]
[ 0.12534374  0.17227955  0.27698466]
[ 0.02486383  0.1619496   0.24968152]
[-0.1157326  -0.07052096  0.05654721]
[-0.14876184 -0.19329643 -0.27313882]
[ 0.05909867  0.05749084 -0.04464933]
[ 0.11420871  0.1546257   0.15080884]
[-0.01969112  0.15350339  0.14271444]
[-0.16365314 -0.20759079 -0.18789171]
[ 0.11469449 -0.03011491  0.04563794]
[ 0.18494689  0.13205819 -0.04313146]
[ 0.04777137  0.13707697  0.06767274]
[ 0.06569999  0.04221352  0.10340137]
[ 0.22929497  0.22957367  0.09370711]
[ 0.11339203  0.03878585  0.13191323]
[ 0.04033889  0.05512502  0.03815332]
[-0.15597008 -0.03790006 -0.11323965]
[-0.05177935 -0.1041097  -0.13997813]
[ 0.12065008  0.08322937  0.07422194]
[ 0.03104124  0.07854125  0.12998742]
[ 0.02230199 -0.04753275  0.06006972]
[-0.15135378 -0.10087492  0.04901152]
[-0.10906545  0.09368715 -0.05446988]
[-0.11434541 -0.12651013 -0.07756469]
[-0.16611148 -0.06186724  0.09253145]
[ -2.41459191e-01  -2.04708485e-05  -1.65362343e-01]
[ 0.05937189  0.07938515 -0.08854388]
[-0.14983843 -0.09520764  0.10827497]
[ 0.25004458  0.08340966  0.02334522]
[ 0.26006079 -0.01627661  0.08195363]
[-0.1147038  -0.12004263 -0.11341786]
[-0.15483533 -0.11369124 -0.16604024]
[-0.09602398 -0.04659302 -0.09344925]
[ 0.05578867  0.2168272   0.12459832]
[ 0.13182047  0.16677873  0.09630464]
[-0.19469664 -0.10129616 -0.06186917]
[-0.14661106  0.11605746  0.0420875 ]
[ 0.00097258 -0.07096085 -0.06834283]
[-0.1758638  -0.15508115  0.03256474]
[-0.078557    0.01956252 -0.11061507]
[ 0.07197382  0.00609196 -0.08434092]
[-0.15545626 -0.14432643 -0.05269038]
[ 0.15329479 -0.03343697  0.07475875]
[ 0.08247935  0.09066686 -0.04427647]
[-0.10793664 -0.13863748 -0.14003472]
[-0.13447791 -0.04040574 -0.05580871]
[-0.06332954  0.07505985 -0.16055487]
[-0.19015105 -0.17462829 -0.08803767]
[-0.01132783 -0.00671338 -0.05993346]
[-0.14825201 -0.00707543  0.05406379]
[ 0.17517118  0.21834937  0.22765747]
[-0.07924642  0.22514737  0.10341714]
[-0.15800451  0.11374962  0.03401464]
[-0.1539502  -0.03764059 -0.15915106]
[-0.09735782  0.06855779 -0.09163031]
[ 0.11332592  0.00598948  0.17173253]
[-0.00291678  0.1628655   0.2115442 ]
[ 0.03907329  0.15560336  0.13329849]
[ 0.12689255  0.0704141   0.19041304]
[-0.16256052  0.00536876  0.11004321]
[-0.05841764 -0.1574101  -0.0853112 ]
[-0.01995995  0.06932291  0.16056584]
[-0.11065575  0.08417234  0.09760263]
[-0.12650464  0.02421289 -0.0871496 ]
[ 0.11870503 -0.05513836 -0.06168481]
[-0.02864639  0.06590406  0.08041351]
[ 0.00985233 -0.11735351  0.03647392]
[-0.06704374 -0.12120087  0.02957904]
[-0.00852754 -0.06949171 -0.17519304]
[-0.05486127  0.08789135  0.21107474]
[-0.06960811 -0.0226037  -0.02970571]
[-0.18484548 -0.07638605 -0.16539571]
[-0.00442052  0.04124257  0.11513826]
[-0.22950687  0.02579485 -0.06585812]
[-0.24084269 -0.13679637  0.04034816]
[-0.17835763  0.02955709  0.04627284]
[ 0.03714221 -0.11973289  0.08249015]
[ 0.13056597  0.12693267 -0.00421639]
[-0.02850673  0.11157792  0.13622622]
[ 0.11717713  0.11143602  0.10527205]
[-0.20335157 -0.08528359 -0.13467091]
[-0.1244495   0.0699008  -0.03634046]
[-0.09431547 -0.1586739  -0.08753945]
[-0.12481874  0.00497377 -0.12467128]
[-0.01286013 -0.09187786 -0.07738848]
[ 0.0543382   0.16626357  0.19824411]
[-0.11921006 -0.07365336  0.00507784]
[-0.04570396 -0.01060856 -0.1934149 ]
[-0.03656178  0.0678593   0.05666845]
[-0.1352641  -0.09096573 -0.1333169 ]
[-0.01045119 -0.1874844  -0.01357558]
[ 0.00742933  0.00090953  0.13182996]
[-0.25319576 -0.23228988 -0.05459654]
[-0.14841682 -0.06440578 -0.01479089]
[ 0.30126092  0.17543837  0.32056767]
[ 0.01858927  0.38559926  0.13465998]
[ 0.0536763  -0.05637474  0.0914616 ]
[-0.0083993   0.12846571  0.01366896]
[ 0.24377689  0.03500746 -0.05626521]
[ 0.02195393  0.05849417  0.01953442]
[-0.00080426  0.00949048 -0.05394447]
[ 0.10465994 -0.04804129 -0.11560624]
[ 0.24626021  0.02139328 -0.05708462]
[-0.03166718  0.01807393  0.0179831 ]
[-0.0455181  -0.04769067 -0.15941416]
[ 0.04707284  0.01317085 -0.10644197]
[ 0.09300997  0.118063    0.05526064]
[ 0.10315064  0.10550547  0.04704826]
[ 0.14134435  0.13804512  0.00212686]
[-0.08656117 -0.10599677 -0.1094515 ]
[ 0.10179877  0.03012008  0.04742829]
[ 0.04582081  0.05203772  0.14772156]
[-0.01850038 -0.062662   -0.12866479]
[-0.05233543 -0.04957879 -0.09198469]
[ 0.08118273  0.01802453 -0.12143866]
[-0.08914963  0.00783669  0.01799083]
[-0.07417525 -0.09822827 -0.10795804]
[ 0.03131371 -0.01016138 -0.07357951]
[ 0.06721468 -0.05679508 -0.08591359]
[ 0.04362518 -0.12147833  0.02410023]
[-0.04622958  0.01736391 -0.1365791 ]
[-0.08886559 -0.04187953  0.02620858]
[ 0.21255477 -0.04211678 -0.04765251]
[ 0.22393197  0.00978371  0.07845574]
[ 0.09638607 -0.07661527 -0.07743543]
[-0.09160872 -0.01468257  0.14884543]
[-0.01416953 -0.12483423  0.13564734]
[-0.05912983  0.01204947 -0.00362042]
[ 0.03383669  0.11197961 -0.01489566]
[ 0.13614208  0.1567867   0.13539635]
[-0.00205046  0.08466227 -0.08850937]
[ 0.07656658  0.08027288 -0.16592148]
[-0.01930495 -0.08653852 -0.09151556]
[ 0.04719634  0.08593496 -0.1508894 ]
[ 0.05214432 -0.1023794  -0.09188549]
[ 0.18565549  0.06570852 -0.09864635]
[ 0.1141623   0.00563019  0.07786913]
[-0.04044985 -0.02750104 -0.0795337 ]
[ 0.11976283  0.01382181  0.0385781 ]
[ 0.07284206 -0.13134307 -0.08264861]
[-0.02738483 -0.14013818 -0.10421058]
[ 0.02840993 -0.02389367 -0.10514794]
[ 0.12851144  0.10323364  0.06136777]
[-0.09197512 -0.07361925  0.10936707]
[ 0.01394089 -0.02455929  0.09185063]
[ 0.06544533  0.08560399  0.16607156]
[ 0.20508885  0.17880207  0.00974661]
[ 0.28325281  0.24293834  0.21230231]
[-0.06195445 -0.03327275 -0.02824921]
[-0.04297457 -0.15005353  0.06466541]
[ 0.12293738 -0.10328079 -0.09068014]
[ 0.05769075  0.21916491  0.00547464]
[ 0.04869128 -0.01164877  0.04810601]
[ 0.00547642 -0.02897556  0.10870764]
[-0.05422571  0.09772241 -0.02562165]
[-0.02728369  0.00627575 -0.04780449]
[-0.02239799  0.0839506   0.01593902]
[ 0.03854885 -0.06923681 -0.0710448 ]
[-0.1200033  -0.088976   -0.02089542]
[ 0.1140224  -0.14449155 -0.04586329]
[ 0.09756955 -0.12454049 -0.01929694]
[-0.01907856  0.08478379 -0.1000743 ]
[ 0.16624834  0.12789179  0.1062635 ]
[ 0.12224817 -0.14588724 -0.061797  ]
[-0.04902435 -0.08095224  0.01612055]
[ 0.17088296  0.01453313  0.09273519]
[-0.0062855  -0.02127778 -0.06295571]
[ 0.00272749 -0.13155155 -0.00193234]
[ 0.17406957  0.07537666 -0.05031397]
[ 0.05067544  0.07301499  0.09954258]
[ 0.21685444 -0.11516059  0.09743705]
[-0.03197093  0.02958379 -0.1532113 ]
[ 0.08823983  0.01542747  0.06325291]
[ 0.1249422   0.06696948 -0.06830741]
[ 0.01194052 -0.01732829 -0.10738239]
[ 0.07896963  0.09080073  0.05944182]
[-0.00715034  0.03893064 -0.12405587]
[-0.10322515  0.09843084 -0.11418801]
[ 0.007967    0.17690434  0.07014972]
[ 0.04781917  0.08820067  0.08470818]
[-0.11169829 -0.17598663 -0.12814997]
[ 0.04255308 -0.0038055  -0.17298734]
[ 0.07491053 -0.02921032 -0.07965083]
[-0.0817907   0.12150538  0.0167979 ]
[ 0.01157776 -0.03237952 -0.07841423]
[ 0.10737499 -0.00453866 -0.14731969]
[-0.04561093 -0.05405533 -0.07638431]
[ 0.06761454  0.00288744 -0.04262011]
[-0.04014503 -0.0439551   0.0416739 ]
[-0.08041216  0.14703707 -0.07659257]
[ 0.13305953  0.10405163 -0.12965792]
[ 0.15899181  0.15460332 -0.06820704]
[ 0.13836029  0.09477007  0.03773126]
[-0.20946658 -0.12373282  0.09218298]
[-0.20783523 -0.20326766 -0.17047767]
[-0.21693528 -0.03697037 -0.05848426]
[-0.13980305  0.00884876 -0.009207  ]
[ 0.03309771 -0.11780204 -0.02833786]
[-0.09757455 -0.14097469  0.09531721]
[ 0.07532096 -0.10830931 -0.05042655]
[ 0.00711653  0.07358389 -0.0757159 ]
[ 0.03615734 -0.07853634  0.04440782]
[-0.03342897 -0.06839622 -0.12362526]
[-0.05403455 -0.05665386 -0.11345999]
[-0.08911201  0.04200415  0.11142666]
[ 0.02416944  0.05252093  0.16713469]
[-0.03591548  0.15830149 -0.00549091]
[-0.0382928  -0.04650461  0.14028472]
[-0.116513    0.06479607  0.01844011]
[ 0.02373258 -0.08630432 -0.03337302]
[-0.07406835  0.1106858   0.01784883]
[ 0.05383666  0.06744388 -0.13100722]
[-0.10933009  0.13202748  0.1030992 ]
[ 0.07854024  0.06259054 -0.10512225]
[ 0.12588443  0.04980474 -0.03007683]
[ 0.01180222 -0.0277478  -0.13576727]
[ 0.04756026 -0.01843006  0.02127218]
[ 0.00622907  0.0708123   0.17358555]
[ 0.05611037  0.08552933  0.2090608 ]
[-0.0900971   0.13170902  0.1235721 ]
[ 0.11343656 -0.11454246  0.10192414]
[-0.01256215 -0.05476302  0.06472548]
[ 0.16885677  0.02966798  0.02409618]
[ 0.04377452 -0.04412283 -0.15459652]
[-0.06357643 -0.06970144  0.07237032]
[-0.00975469 -0.09535352  0.00144877]
[-0.06485065 -0.07284564  0.04566161]
[ 0.04126489 -0.01799923  0.04167058]
[-0.00011895  0.11043236 -0.07086167]
[ 0.10817292 -0.11937898 -0.03458241]
[ 0.06315842 -0.01277278  0.07234704]
[-0.08495628  0.04729764 -0.10667279]
[-0.04720829 -0.10127574 -0.10107504]
[-0.02334578 -0.08335432 -0.09599774]
[ 0.12218122  0.06019938 -0.11271749]
[-0.07921518 -0.04862151 -0.10632599]
[-0.01601683  0.07465679  0.05180873]
[ 0.10311078  0.0614643  -0.06833077]
[ 0.08065989 -0.00838941 -0.06200242]
[ 0.09830243  0.00780553 -0.10728514]
[ 0.00100087 -0.0342453  -0.09867311]
[-0.14376593 -0.19098505 -0.02197391]
[ 0.02312093 -0.03425381  0.04951386]
[-0.05623518  0.05721242 -0.00222905]
[-0.095611    0.12069183  0.00700724]
[-0.13838792  0.14201014 -0.07856891]
[ 0.09136659  0.10388011 -0.00080831]
[-0.20769584 -0.17131442 -0.08851811]
[-0.06586267 -0.01874189  0.08637849]
[-0.05249571 -0.11777669 -0.10087784]
[-0.06159733  0.09629745  0.12511413]
[ 0.1031568   0.05286249 -0.08438339]
[-0.05423449  0.09742173  0.03016118]
[ 0.1241066  -0.12656507 -0.12723634]
[-0.06051015 -0.00078941 -0.17247778]
[ 0.10365938  0.03426277 -0.13761742]
[ 0.00044889 -0.04905732  0.00067081]
[-0.0587813   0.03217747  0.08805878]
[ 0.12374865  0.07008108  0.04255223]
[-0.05837538 -0.07854215  0.01604767]
[ 0.05963484 -0.08940928 -0.04922567]
[-0.13616778 -0.09514516 -0.06023121]
[ 0.06048426  0.14746191  0.02636295]
[ 0.07138056 -0.08950913  0.15221436]
[-0.06817455  0.01603916  0.1069575 ]
[-0.04422845  0.118979    0.1727075 ]
[-0.0145759   0.09293135  0.04549434]
[ 0.11968101  0.09252271  0.08965975]
[-0.08869848 -0.16785839 -0.00347965]
[ 0.0338501  -0.04420662 -0.08974398]
[ 0.03185277 -0.13199766  0.0581292 ]
[ 0.14698742  0.10255273  0.0009834 ]
[ 0.07482053 -0.02339507 -0.15944348]
[-0.03429805  0.06282459  0.05218636]
[ 0.044347   -0.08954047  0.05964528]
[-0.02429062 -0.11210541 -0.12850888]
[ 0.00852269 -0.0993612  -0.10452221]
[-0.1101974  -0.09583238  0.01729265]
[ 0.01701756 -0.06270744  0.08791906]
[-0.04506355  0.01421551 -0.10246105]
[-0.06736551  0.08312109  0.02331612]
[-0.01925439  0.1068304  -0.05712803]
[ 0.00393708  0.08565815  0.00551476]
[-0.05511188  0.11295619  0.09153065]
[ 0.000441    0.10004544  0.0604331 ]
[-0.03754112 -0.09800779 -0.06342649]
[-0.09972156 -0.09631192 -0.14192627]
[-0.19842815 -0.07697336  0.07374387]
[-0.03961615 -0.25340477 -0.01147802]
[ 0.09588745  0.05628764 -0.12202339]
[-0.06788578 -0.06966708 -0.12600964]
[-0.16690832 -0.15870552 -0.0394217 ]
[ 0.09249125  0.09787145 -0.07576228]
[ 0.12796178 -0.07748177  0.09651227]
[-0.03346504  0.01298913  0.11355942]
[ 0.07791304  0.00018435 -0.10679735]
[ 0.01865641  0.02533365  0.07580386]
[ 0.05169571  0.02822779  0.02086178]
[ 0.08829585 -0.10396829  0.03586123]
[ 0.09698572  0.16941093 -0.05824428]
[-0.09952728  0.13875799 -0.0028915 ]
[ 0.10687001 -0.03861189 -0.12464552]
[ 0.0042703  -0.02593771 -0.0337937 ]
[-0.06984839  0.11132921  0.10786708]
[-0.00280892  0.01521809 -0.04149227]
[ 0.09081028  0.05390989 -0.09873446]
[ 0.16974679  0.05102392 -0.00350313]
[ 0.00804803 -0.02130446  0.01667289]
[-0.00246737 -0.01627817 -0.15595312]
[-0.00910027 -0.07532518 -0.08996401]
[-0.06532068  0.03988143 -0.12988047]
[ 0.11753555 -0.12941624  0.00586312]
[ 0.1538236  -0.08000289 -0.00859578]
[ 0.2383941  -0.07806708 -0.04105051]
[ 0.22501168  0.16586177  0.03221878]
[ 0.10320947  0.18367271  0.11481399]
[ 0.09581535 -0.05920883 -0.01266714]
[-0.10821817  0.0348342   0.02941236]
[ 0.08492213  0.11262377 -0.0009589 ]
[ 0.10191751 -0.12211604 -0.05924938]
[-0.02340036  0.04457774 -0.109542  ]
[ 0.13730475  0.10968855 -0.0957664 ]
[ 0.04572407 -0.05401916 -0.04925238]
[-0.02199955 -0.12609915  0.04906274]
[ 0.18047562  0.09301104 -0.12302358]
[-0.0165214  -0.0694664  -0.05200858]
[ 0.10488591  0.06561217  0.03016912]
[ 0.09668618  0.07263166  0.1177543 ]
[ 0.00888868  0.04657631 -0.12419245]
[ 0.094386    0.02735099 -0.16830084]
[ 0.08943895  0.04534805  0.07202442]
[-0.12966086 -0.00948739 -0.15631138]
[ 0.00290395 -0.04295386 -0.01274098]
[ 0.00415796 -0.01929404  0.00333872]
[ 0.01563254 -0.10754121 -0.10094797]
[-0.0724531  -0.04062968 -0.02741955]
[ 0.05287261 -0.02542784  0.04792446]
[ 0.10901623  0.15512986 -0.03420805]
[ 0.2281139   0.15057325 -0.02904206]
[-0.01147491  0.09406064  0.1568671 ]
[-0.07863079  0.04389964 -0.02538467]
[ 0.11520057 -0.04892356 -0.08826894]
[ 0.04628367  0.08338884 -0.07235163]
[-0.04823366 -0.04190015 -0.0681132 ]
[-0.00895864  0.08721432 -0.00824581]
[-0.0017713  -0.17270744  0.05432286]
[ 0.02925108 -0.09155127 -0.06972599]
[-0.03456706  0.06375291 -0.02450228]
[-0.06160785 -0.06599987 -0.06881905]
[ 0.07181567  0.02493479 -0.07673696]
[-0.10681528 -0.01798328 -0.10494789]
[ 0.03373106 -0.01500454  0.04046362]
[ 0.06219608 -0.06139242 -0.17598258]
[ 0.09837696  0.01155955  0.07372502]
[-0.07667577  0.09446003 -0.00176138]
[-0.04474404 -0.09666929  0.07824672]
[-0.02750701  0.00857209 -0.17329702]
[ 0.16192971  0.0854756   0.01564235]
[-0.04509417 -0.02855885  0.01956356]
[ 0.10397951  0.11049683 -0.1387701 ]
[ 0.1721952  -0.01431965 -0.05461081]
[ 0.11375442 -0.07346429  0.09462986]
[-0.00746569  0.06479532  0.12381108]
[ 0.09913197  0.00148555 -0.05507429]
[-0.14685921  0.12161897  0.13629633]
[-0.09782143 -0.11985555 -0.02726465]
[-0.12301644  0.04074399 -0.0272144 ]
[-0.14810862 -0.04090304 -0.02471923]
[-0.11546661  0.02219749 -0.072495  ]
[-0.03202374 -0.10593249 -0.12964301]
[-0.11012641 -0.03125337  0.0107638 ]
[ 0.07616226 -0.20120873 -0.1513982 ]
[-0.21171054 -0.1242094  -0.04854899]
[-0.03312777 -0.02285614 -0.1672159 ]
[ 0.08440904  0.03883398 -0.02053737]
[-0.02993882 -0.05269366 -0.08388027]
[ 0.0075463  -0.09080122 -0.15727161]
[ 0.09135844  0.03540794 -0.05554979]
[ 0.02872671  0.0953986   0.08078863]
[-0.07080023  0.07906993  0.00844776]
[ 0.026266   -0.14368914  0.10724945]
[ 0.14546748  0.1683822  -0.04200432]
[ 0.03293236  0.02815334  0.08830632]
[ 0.02103507  0.04888338 -0.00701954]
[-0.08295217 -0.02976627 -0.03216493]
[ 0.06151862  0.07439025 -0.00790404]
[ 0.0344782   0.0865067   0.03569077]
[ 0.10756043  0.21929398  0.18879087]
[-0.06306057  0.0397213  -0.01092327]
[-0.10764388 -0.06719531  0.10552195]
[-0.09232861 -0.14478663 -0.11863458]
[ 0.05125717  0.14735419  0.03603174]
[-0.0620493   0.02445385 -0.06062268]
[-0.09271175  0.00820192  0.03681228]
[ 0.06348704  0.03250625  0.1351658 ]
[-0.04636316  0.04378375  0.06737222]
[ 0.06766767 -0.05991866  0.10654517]
[ 0.01588561  0.24549577  0.08397484]
[ 0.11007182  0.09892811 -0.08479091]
[-0.02617438 -0.05920269  0.0900212 ]
[ 0.04792017 -0.03906321 -0.00358285]
[ 0.03037877 -0.00336319  0.09496114]
[-0.09107096 -0.15000108 -0.07736637]
[-0.00405211  0.04730852 -0.10568112]
[-0.13525547 -0.12834114 -0.08917239]
[ 0.01814339 -0.08859205 -0.0963184 ]
[ 0.11019143  0.13321882  0.00557461]
[ 0.014761   -0.11061468 -0.09465829]
[-0.08679342  0.05270989  0.04548414]
[ 0.0638314   0.11837366  0.13308562]
[ 0.04882087  0.02969912  0.04851225]
[ 0.12765869 -0.07754659  0.07526528]
[ 0.22922119  0.09798799  0.18756264]
[ 0.069782    0.16838607  0.22939329]
[ 0.04130667 -0.02858487  0.21523707]
[ 0.06459225 -0.10359627 -0.08600055]
[ 0.10726571  0.11436051  0.0288069 ]
[ 0.04896889  0.04938513 -0.16165364]
[ 0.12238761  0.12908466  0.05916074]
[-0.05872536  0.05054075  0.08577219]
[-0.12595735 -0.08026934 -0.08136155]
[ 0.06895959  0.0928804  -0.06253451]
[ 0.12979963 -0.11964534  0.11463221]
[-0.02187192 -0.05423364 -0.13261977]
[-0.09913261 -0.03091029  0.05507292]
[-0.06913321  0.11695701 -0.07345917]
[-0.04762372 -0.02029211 -0.13628946]
[ 0.04919797 -0.02124149  0.14010683]
[-0.05306662 -0.0576356   0.03256956]
[-0.12390585 -0.14964437  0.0288009 ]
[-0.05951245 -0.03433359 -0.07617053]
[-0.06415031  0.09591108 -0.06080949]
[ 0.04057129  0.04949461  0.07856809]
[ 0.12820758  0.0208682  -0.01470654]
[ 0.18200286  0.16199298  0.07586684]
[ 0.10530125  0.09262753 -0.05709057]
[-0.01227639  0.02925847 -0.00259438]
[-0.08719391  0.01723599  0.03300994]
[ 0.02955111 -0.1124164  -0.18921006]
[-0.03147002  0.14234348  0.07932933]
[-0.07388619 -0.04281237  0.0784815 ]
[-0.08435575 -0.05923437 -0.05978975]
[-0.09023412 -0.08476049 -0.00859378]
[-0.11350673 -0.02293631 -0.00831552]
[-0.03347687 -0.0099882   0.07460587]
[-0.02087882 -0.08058181  0.05366056]
[ 0.10645721 -0.07096658  0.14731346]
[-0.09811466 -0.08408901  0.1153231 ]
[-0.09137578  0.1303972   0.09961373]
[ 0.13489106 -0.00927897  0.04821046]
[-0.02258931 -0.01121153  0.10585015]
[ 0.04621031 -0.00217323  0.08277287]
[-0.13944638 -0.01870822  0.11856827]
[ 0.06753135 -0.04445101  0.0855054 ]
[-0.13172109 -0.0632037  -0.08504036]
[ 0.12313458  0.09184767  0.145833  ]
[-0.13189593 -0.09568752 -0.17417671]
[ 0.01546    -0.01182563 -0.08705454]
[ 0.05047559 -0.04193606 -0.04645225]
[-0.00319548  0.01087664 -0.00281914]
[ 0.06079107  0.01771195  0.08322617]
[ 0.0878537   0.02719082 -0.02327507]
[ 0.07435441  0.06441546  0.09402082]
[-0.06283525 -0.0432541  -0.01785502]
[ 0.07790198 -0.06923216  0.10219911]
[-0.17212959 -0.10134574 -0.02181355]
[-0.00647399  0.09361886  0.01904644]
[ 0.04197799  0.03922833  0.07072153]
[-0.07676676  0.04531806 -0.09862703]
[ 0.0052329   0.09915838 -0.08702157]
[-0.06832916 -0.02532754  0.0027228 ]
[-0.01878643  0.02049912  0.11930655]
[ 0.05685031 -0.08397807  0.0760962 ]
[-0.15063633  0.03380269 -0.06450132]
[-0.14690313 -0.02190582  0.07243784]
[-0.0729262   0.07109218 -0.00534166]
[ 0.02808641  0.01303468  0.0829392 ]
[-0.01420822 -0.16130103 -0.02820985]
[-0.04548379  0.18104829  0.11931344]
[ 0.03829588  0.11070669  0.07933506]
[ 0.07328913  0.05711722  0.33100766]
[ 0.13209102 -0.03975603 -0.08066314]
[-0.08964741 -0.0500543   0.10480127]
[ 0.01890881 -0.07581113  0.20477486]
[-0.0451487   0.08256898 -0.05024131]
[ 0.08684196 -0.15806703  0.08222266]
[-0.07249974 -0.06863878 -0.08476559]
[ 0.04380021 -0.10363111  0.16392404]
[-0.09207606 -0.1338342   0.06329106]
[-0.13961875 -0.04249715 -0.03665816]
[ 0.00716042  0.09365716  0.11218309]
[ 0.06855327  0.149251    0.09082001]
[ 0.00668108 -0.07404612  0.21955942]
[ 0.05901023  0.03572271 -0.00253664]
[ 0.00357539  0.06414881 -0.01534518]
[-0.06913758 -0.12577136  0.07403505]
[-0.13145564 -0.11878321 -0.01509314]
[-0.1206078  -0.005691    0.08762178]
[-0.02018749 -0.05732574  0.03379866]
[-0.10880214  0.09115115  0.12106451]
[ 0.05414155 -0.13965549  0.06158581]
[-0.03621376 -0.19787315 -0.13671489]
[-0.02223356 -0.02889431  0.00135944]
[-0.1308271  -0.12190833  0.12558983]
[ 0.09171132 -0.081154   -0.17491572]
[ 0.06474981  0.00955275 -0.03639032]
[-0.06884978  0.00384006 -0.11515722]
[-0.02722042  0.10158393  0.00043628]
[ 0.10735045  0.11681062  0.00196056]
[-0.04976256  0.25280285  0.03301029]
[-0.14206126 -0.03448492  0.22007678]
[-0.17566101  0.04905478  0.13550295]
[ 0.00276063 -0.11052658 -0.07458389]
[-0.03696627  0.04336429 -0.08061775]
[ 0.13269123 -0.06008181  0.16812681]
[ 0.08117284 -0.06497428 -0.08515601]
[-0.06383075 -0.20366867 -0.06286662]
[ 0.07908073  0.05550708  0.03559251]
[-0.09725388  0.03421541  0.08404299]
[ 0.03238548  0.01779557 -0.18474565]
[-0.12308737 -0.04784105  0.17560223]
[-0.10588004 -0.04000102 -0.07702972]
[ 0.08055437 -0.07338587 -0.10420876]
[-0.04543573 -0.05578579 -0.04457879]
[-0.1294993   0.11401796  0.11410067]
[-0.12032272  0.00537002 -0.11638299]
[-0.06767725 -0.06207338 -0.00334252]
[-0.14224088  0.10060694 -0.04794412]
[-0.11238891 -0.06179647 -0.14901897]
[-0.11735988 -0.0601484   0.02327069]
[-0.03059902  0.02707609 -0.13762526]
[-0.02346074  0.03616801 -0.0056911 ]
[ 0.07006417  0.06861001  0.16643968]
[ 0.10806981 -0.15682383  0.05989943]
[ 0.11692683 -0.14234629 -0.10623059]
[-0.11222837  0.14435537 -0.0563966 ]
[-0.1020445  -0.08838961  0.13248903]
[ 0.03847528 -0.03067786  0.12986666]
[ 0.05741884  0.05385102  0.10472143]
[-0.11877101  0.0053507   0.16727325]
[-0.09875556 -0.06974252 -0.09326934]
[-0.09346006  0.19752286  0.05641718]
[-0.01780299 -0.04191538  0.17482972]
[ 0.00060271 -0.16680908 -0.12342697]
[ 0.05540749  0.07756452 -0.10616652]
[ 0.05895747  0.0284827  -0.01525089]
[-0.0898051  -0.01741222  0.13232534]
[-0.17401277 -0.03357651  0.06953043]
[-0.07121576 -0.16171645 -0.11628112]
[-0.14228277 -0.15948834 -0.14064527]
[ 0.05528322 -0.10968877  0.07235607]
[-0.07729086 -0.18811071 -0.09108195]
[ 0.09047797 -0.13567138  0.04827945]
[ 0.13056827  0.0658851  -0.09214363]
[-0.09116488 -0.10162107 -0.16417667]
[ 0.05404454 -0.00422969 -0.01563448]
[ 0.00030324  0.13484657  0.04901595]
[-0.01546466  0.18397346  0.16622867]
[ 0.03434306 -0.07901023 -0.04837872]
[-0.02769665  0.10109347  0.12342924]
[-0.1291485   0.12218586  0.00536818]
[-0.02657949 -0.17529742  0.03223136]
[ 0.01247216 -0.05169226 -0.07863718]
[ 0.07867178 -0.08375189  0.0336852 ]
[ 0.09220272 -0.04714679 -0.0244831 ]
[ 0.07624039  0.0594318  -0.05484278]
[-0.14837682  0.01832435  0.19288112]
[ 0.06901325 -0.13198553  0.03314801]
[ 0.06625042  0.00920822 -0.03016122]
[ 0.12092892  0.00885594  0.11568528]
[ 0.07047635 -0.17072165  0.07058012]
[-0.08849856  0.08524054 -0.02045866]
[ 0.11300109 -0.18500036  0.04280875]
[-0.09119821 -0.09069389 -0.08375949]
[-0.05721534  0.11910247  0.07674506]
[ 0.01403932  0.01708707  0.30686918]
[-0.11505357  0.01532081  0.2586076 ]
[ 0.05374372 -0.01450524 -0.04484319]
[-0.00183477 -0.00190073  0.00787728]
[ 0.05114101 -0.04070753 -0.02769732]
[-0.02265269  0.10331222  0.09678798]
[-0.03656304  0.06369664  0.06362414]
[-0.14530669 -0.20067433 -0.11619369]
[-0.07577456  0.00983726  0.04306561]
[ 0.09058357 -0.07070285  0.05501896]
[-0.04015496 -0.15274875  0.10012113]
[ 0.01750242 -0.04922462  0.10729084]
[ 0.1099105   0.12398694  0.0865587 ]
[ 0.08430478 -0.07665106  0.07033375]
[-0.10654266 -0.11098941 -0.00772379]
[-0.00263639  0.0172394  -0.11674371]
[ 0.09117672 -0.02539977  0.13049689]
[-0.09750357  0.11587917 -0.03990712]
[-0.02341095  0.0196528  -0.05641322]
[ 0.06236814 -0.14149711 -0.00947872]
[-0.0704686   0.10384266  0.09979538]
[ 0.09962975 -0.00618337 -0.03897323]
[ 0.07633868 -0.13187046 -0.01980728]
[-0.05372798 -0.09341522  0.07136019]
[-0.11824346  0.11644749 -0.01739502]
[-0.13035408 -0.06877469  0.1273344 ]
[-0.01030893 -0.03175732 -0.12737259]
[ 0.01813388  0.02389803 -0.10264628]
[ 0.09697485 -0.13379134  0.04915496]
[ 0.03555098  0.0632207  -0.14576705]
[ 0.10019632  0.03350224 -0.02017662]
[ 0.01769165  0.01185448  0.01051593]
[ 0.02280997  0.09186557 -0.09025809]
[-0.03395898 -0.1336382  -0.09791743]
[-0.04667093 -0.03357891 -0.06824945]
[ 0.0040977   0.00292742  0.02290875]
[ 0.08096155 -0.13978145 -0.00312493]
[-0.14269778 -0.08008531  0.10992125]
[ 0.10421575 -0.00168978  0.08013747]
[-0.05808176  0.05114056  0.01332902]
[ 0.07464795  0.0976035   0.08061748]
[ 0.06999446  0.02528457 -0.00209583]
[ 0.06658223 -0.05784154 -0.02109068]
[ 0.02279549  0.00332286 -0.05010665]
[ 0.11017776  0.0388178   0.10412024]
[-0.05061763  0.06996429 -0.02030698]
[-0.10458265  0.11241703  0.0299972 ]
[-0.03585467 -0.05195574  0.01609435]
[-0.04215832 -0.11546224 -0.07817424]
[ 0.08468058 -0.02438698 -0.0202347 ]
[-0.06409942  0.09889815 -0.01688657]
[ 0.16477342  0.04424406 -0.14273846]
[-0.12761508  0.03378325 -0.12263123]
[-0.05170045 -0.00959096  0.10232004]
[-0.06007145  0.10200258  0.10051796]
[-0.03231684  0.09414226 -0.08931042]
[-0.06305521 -0.05595142 -0.1209939 ]
[ 0.050352   -0.00580887 -0.10370235]
[-0.19332756 -0.04502055 -0.23799488]
[-0.13257955  0.09007671  0.09165476]
[ 0.05947309  0.02110538 -0.050262  ]
[ 0.07883068  0.05605059  0.07439844]
[-0.11503982 -0.05740567  0.0439413 ]
[ 0.01018364 -0.06597966  0.00801064]
[ 0.09887592  0.03880671 -0.06052128]
[ 0.08096331  0.0771486   0.10631919]
[ 0.14421377  0.11363145 -0.10955144]
[-0.11753368 -0.00216352  0.04918019]
[-0.00276505  0.04742397 -0.02545247]
[-0.04552066  0.02742893  0.06813592]
[ 0.08360989  0.03521759 -0.09603143]
[ 0.09324674  0.12052595 -0.08246182]
[ 0.05421356  0.02665669  0.05704237]
[ 0.0021092   0.03653302  0.08137258]
[-0.00866588  0.07885601  0.10936104]
[ 0.01239492 -0.05272447 -0.01187358]
[ 0.03676162 -0.03969335 -0.08045526]
[ 0.00961028 -0.05878125 -0.15596528]
[-0.01421945  0.07906435 -0.18065269]
[ 0.02434419 -0.02444992 -0.14509712]
[-0.09262515 -0.08114292  0.08702229]
[-0.12085663  0.06666832  0.03611494]
[-0.02828441 -0.00483799 -0.11033422]
[-0.03406635  0.07206569 -0.02677745]
[ 0.01233174 -0.06098104 -0.08831991]
[-0.05160615 -0.1201431   0.05994602]
[ 0.09506577 -0.14144892 -0.01080764]
[-0.13880405 -0.13135374 -0.08847705]
[ 0.05943765  0.09815755 -0.03407279]
[-0.02106834 -0.02938299 -0.11673351]
[-0.08991596 -0.1241848   0.05807183]
[ 0.06541107 -0.03204882 -0.00959581]
[ 0.09517362  0.07099622 -0.11006129]
[ 0.03931494 -0.01050424  0.03826651]
[-0.11311174 -0.16023271 -0.04796842]
[-0.0841447  -0.07041929 -0.10860687]
[ 0.03277772 -0.09119885 -0.15992086]
[ 0.0856382  -0.01588386  0.01614996]
[ 0.00024964 -0.08226403  0.00357351]
[-0.06766488  0.11729771  0.03422297]
[ 0.11153057  0.05387319 -0.06416515]
[ 0.03006521 -0.13398102 -0.12528752]
[-0.07627403 -0.15741897  0.05551833]
[ 0.15138537 -0.08539841  0.02075791]
[-0.06413062 -0.02748398  0.06948506]
[ 0.01556672 -0.11514436  0.0134763 ]
[ 0.13679621  0.0116061  -0.01681784]
[ 0.08031322 -0.08644115  0.05196619]
[ 0.11510321 -0.00515863 -0.15012328]
[ 0.05475083  0.01174941 -0.11723797]
[ 0.14729851  0.14548837 -0.0203869 ]
[ 0.18248552  0.03574575  0.01439473]
[ 0.17295006  0.17640395  0.06070397]
[ 0.02318785  0.08935475  0.06838583]
[-0.08371428  0.034053   -0.13160262]
[ 0.07397927  0.12356851 -0.01225363]
[ 0.04714902  0.01439464 -0.07268619]
[-0.00279938 -0.06239448  0.03640226]
[-0.01437324 -0.12139449  0.00387611]
[-0.05429376  0.0917322  -0.06184357]
[-0.10636866 -0.09620036  0.02587306]
[ 0.09939875 -0.03768698  0.13868982]
[-0.09009453  0.1012022   0.10053744]
[-0.0775034  -0.12801433 -0.03308228]
[-0.09628469  0.03873527 -0.04139339]
[ 0.09363628 -0.0487974  -0.14118908]
[ 0.00329176 -0.02340961  0.07280508]
[ 0.03933539  0.00336703  0.02570882]
[-0.03214423  0.05128458 -0.1466029 ]
[ 0.03873054  0.1004869  -0.06025349]
[ 0.06591847  0.14951012 -0.04135925]
[-0.08979674  0.09701241 -0.06562702]
[ 0.03478704 -0.06514969  0.00037436]
[ 0.11133521 -0.04590231 -0.12472098]
[-0.03073879 -0.02587126 -0.10723616]
[ 0.02160233  0.04839161  0.05798438]
[-0.01944593  0.10035732 -0.01313613]
[-0.0240603  -0.09426409 -0.13612351]
[-0.05579691 -0.05387609  0.02706497]
[ 0.09999485 -0.02053068  0.08997547]
[ 0.05705247 -0.05240178  0.09749288]
[ 0.04945472 -0.03595479 -0.1161474 ]
[-0.05898215 -0.01180832  0.08999158]
[-0.01764603 -0.04581428 -0.00061655]
[ 0.00646327  0.09111724 -0.04811434]
[ 0.15388125  0.14440764  0.03753395]
[ 0.0765812  -0.07779481  0.01869597]
[ 0.03013781  0.07696135 -0.03840042]
[-0.02862536 -0.04601027  0.06411115]
[-0.02641195 -0.086054    0.00669021]
[ 0.01361785 -0.07979021  0.0823132 ]
[ 0.10112242  0.06914683  0.11788843]
[ 0.03034979 -0.12383693 -0.09070539]
[-0.10423797 -0.03824459 -0.11028574]
[-0.12270112 -0.15683164  0.0114869 ]
[ 0.05178365  0.08559183 -0.03872997]
[-0.10342751 -0.06416631 -0.03878474]
[-0.11214516 -0.01080773  0.05261149]
[ 0.0973216   0.01385083 -0.0458511 ]
[-0.08053114  0.08959733  0.09206054]
[ 0.07623515  0.00999685  0.02252353]
[ 0.00576039 -0.13832773 -0.09037689]
[ 0.01564265  0.03973033  0.01432958]
[-0.1002491  -0.01846446 -0.10477886]
[ 0.07009082  0.05048542 -0.04577569]
[-0.07141621  0.01994763  0.03643843]
[ 0.0741527  -0.05917966 -0.00614637]
[-0.00799245 -0.06373762  0.11235571]
[-0.09779983  0.10331734 -0.04341803]
[-0.00341907  0.15681753 -0.00523486]
[ 0.01475645 -0.01498351 -0.13197748]
[-0.00053565 -0.01596108 -0.14702673]
[-0.11528268 -0.02251934 -0.15721858]
[-0.15291223 -0.07128435 -0.13928504]
[-0.08698099 -0.11798989 -0.08556022]
[ 0.05623354 -0.15704471 -0.10415915]
[ 0.10697601 -0.05409722 -0.12776223]
[ 0.035418   -0.12078451  0.05200731]
[-0.0658593   0.10153384 -0.0268024 ]
[ 0.06537392 -0.12866974  0.04597311]
[-0.13243161 -0.04270622  0.00575223]
[-0.16016124 -0.14803475  0.06928147]
[ 0.0936404   0.12116902  0.10442392]
[-0.01737827  0.10833353 -0.1423275 ]
[ 0.07371111 -0.13427238 -0.00553873]
[ 0.02319425 -0.05462045  0.02833274]
[ 0.00427967  0.07873081 -0.097184  ]
[-0.12583035 -0.01567268 -0.01584501]
[-0.04023107  0.00176632 -0.05917325]
[ 0.03112828 -0.09438594  0.03443293]
[-0.08891784  0.13920489 -0.04884881]
[ 0.0661749   0.13795945  0.08207665]
[ 0.17401539  0.04729546 -0.10601708]
[ 0.02916892 -0.09293617 -0.03601399]
[ 0.05699879 -0.02640409 -0.01622767]
[-0.04209031  0.05492968  0.04301126]
[-0.07982361  0.17538512  0.17573237]
[-0.20578916 -0.01822609 -0.10541192]
[-0.1800216  -0.00903215 -0.11930618]
[-0.23046558  0.00985854  0.00378344]
[ 0.07251992  0.01960787  0.0349912 ]
[ 0.03453487 -0.16311096  0.03382674]
[-0.1331578  -0.09545144 -0.108038  ]
[ 0.12154969  0.05792281  0.16886231]
[-0.0927264   0.01033297  0.18915606]
[ 0.03424624 -0.06284438  0.00984008]
[ 0.15113422  0.12431318  0.12876047]
[ 0.02028584 -0.03882387  0.12805921]
[ 0.17647748 -0.05111614  0.09977481]
[ 0.12256698 -0.15828632  0.04772184]
[ 0.10461585 -0.10015227 -0.09703718]
[-0.06676199 -0.0917483   0.08663294]
[-0.0257123  -0.11638246  0.04776517]
[ 0.11473038  0.00773181 -0.00260798]
[ 0.03292773 -0.0871495  -0.13299616]
